svm_type c_svc
kernel_type linear
nr_class 3
total_sv 809
rho 1.53098 0.0828146 -0.460575
label 1 2 3
nr_sv 369 400 40
SV
1 0 1:0.007246 2:0.072464 3:0.094203 4:0.17029 5:0.068841 6:0.021739 7:0.025362 8:0.014493 9:0.01087 10:0.01087 11:0.003623 12:0 13:0 14:0 15:0 16:0 17:0 18:0 19:0.293478 20:0.202899 21:0.003623 22:0 23:0 24:0 25:0 26:0 27:0 28:0 29:0 30:0 31:0 32:0 33:0 34:0 35:0 36:0 37:0 38:0 39:0.48913 40:0.01087 41:0 42:0 43:0 44:0 45:0 46:0.01087 47:0.028986 48:0.028986 49:0.065217 50:0.036232 51:0.036232 52:0.054348 53:0.065217 54:0.043478 55:0.130435 
1 0 1:0.007246 2:0.072464 3:0.094203 4:0.17029 5:0.068841 6:0.021739 7:0.025362 8:0.014493 9:0.01087 10:0.01087 11:0.003623 12:0 13:0 14:0 15:0 16:0 17:0 18:0 19:0.293478 20:0.202899 21:0.003623 22:0 23:0 24:0 25:0 26:0 27:0 28:0 29:0 30:0 31:0 32:0 33:0 34:0 35:0 36:0 37:0 38:0 39:0.48913 40:0.01087 41:0 42:0 43:0 44:0 45:0 46:0.01087 47:0.028986 48:0.028986 49:0.065217 50:0.036232 51:0.036232 52:0.054348 53:0.065217 54:0.043478 55:0.130435 
1 0 1:0.007246 2:0.072464 3:0.094203 4:0.17029 5:0.068841 6:0.021739 7:0.025362 8:0.014493 9:0.01087 10:0.01087 11:0.003623 12:0 13:0 14:0 15:0 16:0 17:0 18:0 19:0.293478 20:0.202899 21:0.003623 22:0 23:0 24:0 25:0 26:0 27:0 28:0 29:0 30:0 31:0 32:0 33:0 34:0 35:0 36:0 37:0 38:0 39:0.48913 40:0.01087 41:0 42:0 43:0 44:0 45:0 46:0.01087 47:0.028986 48:0.028986 49:0.065217 50:0.036232 51:0.036232 52:0.054348 53:0.065217 54:0.043478 55:0.130435 
1 0 1:0.007246 2:0.072464 3:0.094203 4:0.17029 5:0.068841 6:0.021739 7:0.025362 8:0.014493 9:0.01087 10:0.01087 11:0.003623 12:0 13:0 14:0 15:0 16:0 17:0 18:0 19:0.293478 20:0.202899 21:0.003623 22:0 23:0 24:0 25:0 26:0 27:0 28:0 29:0 30:0 31:0 32:0 33:0 34:0 35:0 36:0 37:0 38:0 39:0.48913 40:0.01087 41:0 42:0 43:0 44:0 45:0 46:0.01087 47:0.028986 48:0.028986 49:0.065217 50:0.036232 51:0.036232 52:0.054348 53:0.065217 54:0.043478 55:0.130435 
1 0 1:0.007246 2:0.072464 3:0.094203 4:0.17029 5:0.068841 6:0.021739 7:0.025362 8:0.014493 9:0.01087 10:0.01087 11:0.003623 12:0 13:0 14:0 15:0 16:0 17:0 18:0 19:0.293478 20:0.202899 21:0.003623 22:0 23:0 24:0 25:0 26:0 27:0 28:0 29:0 30:0 31:0 32:0 33:0 34:0 35:0 36:0 37:0 38:0 39:0.48913 40:0.01087 41:0 42:0 43:0 44:0 45:0 46:0.01087 47:0.028986 48:0.028986 49:0.065217 50:0.036232 51:0.036232 52:0.054348 53:0.065217 54:0.043478 55:0.130435 
1 0 1:0.007246 2:0.072464 3:0.094203 4:0.17029 5:0.068841 6:0.021739 7:0.025362 8:0.014493 9:0.01087 10:0.01087 11:0.003623 12:0 13:0 14:0 15:0 16:0 17:0 18:0 19:0.293478 20:0.202899 21:0.003623 22:0 23:0 24:0 25:0 26:0 27:0 28:0 29:0 30:0 31:0 32:0 33:0 34:0 35:0 36:0 37:0 38:0 39:0.48913 40:0.01087 41:0 42:0 43:0 44:0 45:0 46:0.01087 47:0.028986 48:0.028986 49:0.065217 50:0.036232 51:0.036232 52:0.054348 53:0.065217 54:0.043478 55:0.130435 
1 0 1:0.007246 2:0.072464 3:0.094203 4:0.17029 5:0.068841 6:0.021739 7:0.025362 8:0.014493 9:0.01087 10:0.01087 11:0.003623 12:0 13:0 14:0 15:0 16:0 17:0 18:0 19:0.293478 20:0.202899 21:0.003623 22:0 23:0 24:0 25:0 26:0 27:0 28:0 29:0 30:0 31:0 32:0 33:0 34:0 35:0 36:0 37:0 38:0 39:0.48913 40:0.01087 41:0 42:0 43:0 44:0 45:0 46:0.01087 47:0.028986 48:0.028986 49:0.065217 50:0.036232 51:0.036232 52:0.054348 53:0.065217 54:0.043478 55:0.130435 
1 0 1:0.007246 2:0.072464 3:0.094203 4:0.17029 5:0.068841 6:0.021739 7:0.025362 8:0.014493 9:0.01087 10:0.01087 11:0.003623 12:0 13:0 14:0 15:0 16:0 17:0 18:0 19:0.293478 20:0.202899 21:0.003623 22:0 23:0 24:0 25:0 26:0 27:0 28:0 29:0 30:0 31:0 32:0 33:0 34:0 35:0 36:0 37:0 38:0 39:0.48913 40:0.01087 41:0 42:0 43:0 44:0 45:0 46:0.01087 47:0.028986 48:0.028986 49:0.065217 50:0.036232 51:0.036232 52:0.054348 53:0.065217 54:0.043478 55:0.130435 
1 0 1:0.007246 2:0.072464 3:0.094203 4:0.17029 5:0.068841 6:0.021739 7:0.025362 8:0.014493 9:0.01087 10:0.01087 11:0.003623 12:0 13:0 14:0 15:0 16:0 17:0 18:0 19:0.293478 20:0.202899 21:0.003623 22:0 23:0 24:0 25:0 26:0 27:0 28:0 29:0 30:0 31:0 32:0 33:0 34:0 35:0 36:0 37:0 38:0 39:0.48913 40:0.01087 41:0 42:0 43:0 44:0 45:0 46:0.01087 47:0.028986 48:0.028986 49:0.065217 50:0.036232 51:0.036232 52:0.054348 53:0.065217 54:0.043478 55:0.130435 
1 0 1:0.007246 2:0.072464 3:0.094203 4:0.17029 5:0.068841 6:0.021739 7:0.025362 8:0.014493 9:0.01087 10:0.01087 11:0.003623 12:0 13:0 14:0 15:0 16:0 17:0 18:0 19:0.293478 20:0.202899 21:0.003623 22:0 23:0 24:0 25:0 26:0 27:0 28:0 29:0 30:0 31:0 32:0 33:0 34:0 35:0 36:0 37:0 38:0 39:0.48913 40:0.01087 41:0 42:0 43:0 44:0 45:0 46:0.01087 47:0.028986 48:0.028986 49:0.065217 50:0.036232 51:0.036232 52:0.054348 53:0.065217 54:0.043478 55:0.130435 
1 0 1:0.007246 2:0.072464 3:0.094203 4:0.17029 5:0.068841 6:0.021739 7:0.025362 8:0.014493 9:0.01087 10:0.01087 11:0.003623 12:0 13:0 14:0 15:0 16:0 17:0 18:0 19:0.293478 20:0.202899 21:0.003623 22:0 23:0 24:0 25:0 26:0 27:0 28:0 29:0 30:0 31:0 32:0 33:0 34:0 35:0 36:0 37:0 38:0 39:0.48913 40:0.01087 41:0 42:0 43:0 44:0 45:0 46:0.01087 47:0.028986 48:0.028986 49:0.065217 50:0.036232 51:0.036232 52:0.054348 53:0.065217 54:0.043478 55:0.130435 
1 0 1:0.007246 2:0.072464 3:0.094203 4:0.17029 5:0.068841 6:0.021739 7:0.025362 8:0.014493 9:0.01087 10:0.01087 11:0.003623 12:0 13:0 14:0 15:0 16:0 17:0 18:0 19:0.293478 20:0.202899 21:0.003623 22:0 23:0 24:0 25:0 26:0 27:0 28:0 29:0 30:0 31:0 32:0 33:0 34:0 35:0 36:0 37:0 38:0 39:0.48913 40:0.01087 41:0 42:0 43:0 44:0 45:0 46:0.01087 47:0.028986 48:0.028986 49:0.065217 50:0.036232 51:0.036232 52:0.054348 53:0.065217 54:0.043478 55:0.130435 
1 0 1:0.007246 2:0.072464 3:0.094203 4:0.17029 5:0.068841 6:0.021739 7:0.025362 8:0.014493 9:0.01087 10:0.01087 11:0.003623 12:0 13:0 14:0 15:0 16:0 17:0 18:0 19:0.293478 20:0.202899 21:0.003623 22:0 23:0 24:0 25:0 26:0 27:0 28:0 29:0 30:0 31:0 32:0 33:0 34:0 35:0 36:0 37:0 38:0 39:0.48913 40:0.01087 41:0 42:0 43:0 44:0 45:0 46:0.01087 47:0.028986 48:0.028986 49:0.065217 50:0.036232 51:0.036232 52:0.054348 53:0.065217 54:0.043478 55:0.130435 
1 0 1:0.007246 2:0.072464 3:0.094203 4:0.17029 5:0.068841 6:0.021739 7:0.025362 8:0.014493 9:0.01087 10:0.01087 11:0.003623 12:0 13:0 14:0 15:0 16:0 17:0 18:0 19:0.293478 20:0.202899 21:0.003623 22:0 23:0 24:0 25:0 26:0 27:0 28:0 29:0 30:0 31:0 32:0 33:0 34:0 35:0 36:0 37:0 38:0 39:0.48913 40:0.01087 41:0 42:0 43:0 44:0 45:0 46:0.01087 47:0.028986 48:0.028986 49:0.065217 50:0.036232 51:0.036232 52:0.054348 53:0.065217 54:0.043478 55:0.130435 
1 0 1:0.007246 2:0.072464 3:0.094203 4:0.17029 5:0.068841 6:0.021739 7:0.025362 8:0.014493 9:0.01087 10:0.01087 11:0.003623 12:0 13:0 14:0 15:0 16:0 17:0 18:0 19:0.293478 20:0.202899 21:0.003623 22:0 23:0 24:0 25:0 26:0 27:0 28:0 29:0 30:0 31:0 32:0 33:0 34:0 35:0 36:0 37:0 38:0 39:0.48913 40:0.01087 41:0 42:0 43:0 44:0 45:0 46:0.01087 47:0.028986 48:0.028986 49:0.065217 50:0.036232 51:0.036232 52:0.054348 53:0.065217 54:0.043478 55:0.130435 
1 0 1:0.007246 2:0.072464 3:0.094203 4:0.17029 5:0.068841 6:0.021739 7:0.025362 8:0.014493 9:0.01087 10:0.01087 11:0.003623 12:0 13:0 14:0 15:0 16:0 17:0 18:0 19:0.293478 20:0.202899 21:0.003623 22:0 23:0 24:0 25:0 26:0 27:0 28:0 29:0 30:0 31:0 32:0 33:0 34:0 35:0 36:0 37:0 38:0 39:0.48913 40:0.01087 41:0 42:0 43:0 44:0 45:0 46:0.01087 47:0.028986 48:0.028986 49:0.065217 50:0.036232 51:0.036232 52:0.054348 53:0.065217 54:0.043478 55:0.130435 
1 0 1:0.007246 2:0.072464 3:0.094203 4:0.17029 5:0.068841 6:0.021739 7:0.025362 8:0.014493 9:0.01087 10:0.01087 11:0.003623 12:0 13:0 14:0 15:0 16:0 17:0 18:0 19:0.293478 20:0.202899 21:0.003623 22:0 23:0 24:0 25:0 26:0 27:0 28:0 29:0 30:0 31:0 32:0 33:0 34:0 35:0 36:0 37:0 38:0 39:0.48913 40:0.01087 41:0 42:0 43:0 44:0 45:0 46:0.01087 47:0.028986 48:0.028986 49:0.065217 50:0.036232 51:0.036232 52:0.054348 53:0.065217 54:0.043478 55:0.130435 
1 0 1:0.007246 2:0.072464 3:0.094203 4:0.17029 5:0.068841 6:0.021739 7:0.025362 8:0.014493 9:0.01087 10:0.01087 11:0.003623 12:0 13:0 14:0 15:0 16:0 17:0 18:0 19:0.293478 20:0.202899 21:0.003623 22:0 23:0 24:0 25:0 26:0 27:0 28:0 29:0 30:0 31:0 32:0 33:0 34:0 35:0 36:0 37:0 38:0 39:0.48913 40:0.01087 41:0 42:0 43:0 44:0 45:0 46:0.01087 47:0.028986 48:0.028986 49:0.065217 50:0.036232 51:0.036232 52:0.054348 53:0.065217 54:0.043478 55:0.130435 
1 0 1:0.007246 2:0.072464 3:0.094203 4:0.17029 5:0.068841 6:0.021739 7:0.025362 8:0.014493 9:0.01087 10:0.01087 11:0.003623 12:0 13:0 14:0 15:0 16:0 17:0 18:0 19:0.293478 20:0.202899 21:0.003623 22:0 23:0 24:0 25:0 26:0 27:0 28:0 29:0 30:0 31:0 32:0 33:0 34:0 35:0 36:0 37:0 38:0 39:0.48913 40:0.01087 41:0 42:0 43:0 44:0 45:0 46:0.01087 47:0.028986 48:0.028986 49:0.065217 50:0.036232 51:0.036232 52:0.054348 53:0.065217 54:0.043478 55:0.130435 
1 0.3511179195451326 1:0.007246 2:0.072464 3:0.094203 4:0.17029 5:0.068841 6:0.021739 7:0.025362 8:0.014493 9:0.01087 10:0.01087 11:0.003623 12:0 13:0 14:0 15:0 16:0 17:0 18:0 19:0.293478 20:0.202899 21:0.003623 22:0 23:0 24:0 25:0 26:0 27:0 28:0 29:0 30:0 31:0 32:0 33:0 34:0 35:0 36:0 37:0 38:0 39:0.48913 40:0.01087 41:0 42:0 43:0 44:0 45:0 46:0.01087 47:0.028986 48:0.028986 49:0.065217 50:0.036232 51:0.036232 52:0.054348 53:0.065217 54:0.043478 55:0.130435 
1 0 1:0.02069 2:0.075862 3:0.103448 4:0.096552 5:0.051724 6:0.024138 7:0.062069 8:0.017241 9:0.010345 10:0.02069 11:0.010345 12:0 13:0.003448 14:0 15:0 16:0 17:0 18:0.003448 19:0.437931 20:0.058621 21:0.003448 22:0 23:0 24:0 25:0 26:0 27:0 28:0 29:0 30:0 31:0 32:0 33:0 34:0 35:0 36:0 37:0 38:0 39:0.02069 40:0.47931 41:0 42:0 43:0 44:0 45:0 46:0.024138 47:0.034483 48:0.031034 49:0.027586 50:0.024138 51:0.031034 52:0.051724 53:0.051724 54:0.065517 55:0.158621 
1 0 1:0.02069 2:0.075862 3:0.103448 4:0.096552 5:0.051724 6:0.024138 7:0.062069 8:0.017241 9:0.010345 10:0.02069 11:0.010345 12:0 13:0.003448 14:0 15:0 16:0 17:0 18:0.003448 19:0.437931 20:0.058621 21:0.003448 22:0 23:0 24:0 25:0 26:0 27:0 28:0 29:0 30:0 31:0 32:0 33:0 34:0 35:0 36:0 37:0 38:0 39:0.02069 40:0.47931 41:0 42:0 43:0 44:0 45:0 46:0.024138 47:0.034483 48:0.031034 49:0.027586 50:0.024138 51:0.031034 52:0.051724 53:0.051724 54:0.065517 55:0.158621 
1 0 1:0.02069 2:0.075862 3:0.103448 4:0.096552 5:0.051724 6:0.024138 7:0.062069 8:0.017241 9:0.010345 10:0.02069 11:0.010345 12:0 13:0.003448 14:0 15:0 16:0 17:0 18:0.003448 19:0.437931 20:0.058621 21:0.003448 22:0 23:0 24:0 25:0 26:0 27:0 28:0 29:0 30:0 31:0 32:0 33:0 34:0 35:0 36:0 37:0 38:0 39:0.02069 40:0.47931 41:0 42:0 43:0 44:0 45:0 46:0.024138 47:0.034483 48:0.031034 49:0.027586 50:0.024138 51:0.031034 52:0.051724 53:0.051724 54:0.065517 55:0.158621 
1 0 1:0.02069 2:0.075862 3:0.103448 4:0.096552 5:0.051724 6:0.024138 7:0.062069 8:0.017241 9:0.010345 10:0.02069 11:0.010345 12:0 13:0.003448 14:0 15:0 16:0 17:0 18:0.003448 19:0.437931 20:0.058621 21:0.003448 22:0 23:0 24:0 25:0 26:0 27:0 28:0 29:0 30:0 31:0 32:0 33:0 34:0 35:0 36:0 37:0 38:0 39:0.02069 40:0.47931 41:0 42:0 43:0 44:0 45:0 46:0.024138 47:0.034483 48:0.031034 49:0.027586 50:0.024138 51:0.031034 52:0.051724 53:0.051724 54:0.065517 55:0.158621 
1 0 1:0.02069 2:0.075862 3:0.103448 4:0.096552 5:0.051724 6:0.024138 7:0.062069 8:0.017241 9:0.010345 10:0.02069 11:0.010345 12:0 13:0.003448 14:0 15:0 16:0 17:0 18:0.003448 19:0.437931 20:0.058621 21:0.003448 22:0 23:0 24:0 25:0 26:0 27:0 28:0 29:0 30:0 31:0 32:0 33:0 34:0 35:0 36:0 37:0 38:0 39:0.02069 40:0.47931 41:0 42:0 43:0 44:0 45:0 46:0.024138 47:0.034483 48:0.031034 49:0.027586 50:0.024138 51:0.031034 52:0.051724 53:0.051724 54:0.065517 55:0.158621 
1 0 1:0.02069 2:0.075862 3:0.103448 4:0.096552 5:0.051724 6:0.024138 7:0.062069 8:0.017241 9:0.010345 10:0.02069 11:0.010345 12:0 13:0.003448 14:0 15:0 16:0 17:0 18:0.003448 19:0.437931 20:0.058621 21:0.003448 22:0 23:0 24:0 25:0 26:0 27:0 28:0 29:0 30:0 31:0 32:0 33:0 34:0 35:0 36:0 37:0 38:0 39:0.02069 40:0.47931 41:0 42:0 43:0 44:0 45:0 46:0.024138 47:0.034483 48:0.031034 49:0.027586 50:0.024138 51:0.031034 52:0.051724 53:0.051724 54:0.065517 55:0.158621 
1 0 1:0.02069 2:0.075862 3:0.103448 4:0.096552 5:0.051724 6:0.024138 7:0.062069 8:0.017241 9:0.010345 10:0.02069 11:0.010345 12:0 13:0.003448 14:0 15:0 16:0 17:0 18:0.003448 19:0.437931 20:0.058621 21:0.003448 22:0 23:0 24:0 25:0 26:0 27:0 28:0 29:0 30:0 31:0 32:0 33:0 34:0 35:0 36:0 37:0 38:0 39:0.02069 40:0.47931 41:0 42:0 43:0 44:0 45:0 46:0.024138 47:0.034483 48:0.031034 49:0.027586 50:0.024138 51:0.031034 52:0.051724 53:0.051724 54:0.065517 55:0.158621 
1 0 1:0.02069 2:0.075862 3:0.103448 4:0.096552 5:0.051724 6:0.024138 7:0.062069 8:0.017241 9:0.010345 10:0.02069 11:0.010345 12:0 13:0.003448 14:0 15:0 16:0 17:0 18:0.003448 19:0.437931 20:0.058621 21:0.003448 22:0 23:0 24:0 25:0 26:0 27:0 28:0 29:0 30:0 31:0 32:0 33:0 34:0 35:0 36:0 37:0 38:0 39:0.02069 40:0.47931 41:0 42:0 43:0 44:0 45:0 46:0.024138 47:0.034483 48:0.031034 49:0.027586 50:0.024138 51:0.031034 52:0.051724 53:0.051724 54:0.065517 55:0.158621 
1 0 1:0.02069 2:0.075862 3:0.103448 4:0.096552 5:0.051724 6:0.024138 7:0.062069 8:0.017241 9:0.010345 10:0.02069 11:0.010345 12:0 13:0.003448 14:0 15:0 16:0 17:0 18:0.003448 19:0.437931 20:0.058621 21:0.003448 22:0 23:0 24:0 25:0 26:0 27:0 28:0 29:0 30:0 31:0 32:0 33:0 34:0 35:0 36:0 37:0 38:0 39:0.02069 40:0.47931 41:0 42:0 43:0 44:0 45:0 46:0.024138 47:0.034483 48:0.031034 49:0.027586 50:0.024138 51:0.031034 52:0.051724 53:0.051724 54:0.065517 55:0.158621 
1 0 1:0.02069 2:0.075862 3:0.103448 4:0.096552 5:0.051724 6:0.024138 7:0.062069 8:0.017241 9:0.010345 10:0.02069 11:0.010345 12:0 13:0.003448 14:0 15:0 16:0 17:0 18:0.003448 19:0.437931 20:0.058621 21:0.003448 22:0 23:0 24:0 25:0 26:0 27:0 28:0 29:0 30:0 31:0 32:0 33:0 34:0 35:0 36:0 37:0 38:0 39:0.02069 40:0.47931 41:0 42:0 43:0 44:0 45:0 46:0.024138 47:0.034483 48:0.031034 49:0.027586 50:0.024138 51:0.031034 52:0.051724 53:0.051724 54:0.065517 55:0.158621 
1 0 1:0.02069 2:0.075862 3:0.103448 4:0.096552 5:0.051724 6:0.024138 7:0.062069 8:0.017241 9:0.010345 10:0.02069 11:0.010345 12:0 13:0.003448 14:0 15:0 16:0 17:0 18:0.003448 19:0.437931 20:0.058621 21:0.003448 22:0 23:0 24:0 25:0 26:0 27:0 28:0 29:0 30:0 31:0 32:0 33:0 34:0 35:0 36:0 37:0 38:0 39:0.02069 40:0.47931 41:0 42:0 43:0 44:0 45:0 46:0.024138 47:0.034483 48:0.031034 49:0.027586 50:0.024138 51:0.031034 52:0.051724 53:0.051724 54:0.065517 55:0.158621 
1 0 1:0.02069 2:0.075862 3:0.103448 4:0.096552 5:0.051724 6:0.024138 7:0.062069 8:0.017241 9:0.010345 10:0.02069 11:0.010345 12:0 13:0.003448 14:0 15:0 16:0 17:0 18:0.003448 19:0.437931 20:0.058621 21:0.003448 22:0 23:0 24:0 25:0 26:0 27:0 28:0 29:0 30:0 31:0 32:0 33:0 34:0 35:0 36:0 37:0 38:0 39:0.02069 40:0.47931 41:0 42:0 43:0 44:0 45:0 46:0.024138 47:0.034483 48:0.031034 49:0.027586 50:0.024138 51:0.031034 52:0.051724 53:0.051724 54:0.065517 55:0.158621 
1 0 1:0.02069 2:0.075862 3:0.103448 4:0.096552 5:0.051724 6:0.024138 7:0.062069 8:0.017241 9:0.010345 10:0.02069 11:0.010345 12:0 13:0.003448 14:0 15:0 16:0 17:0 18:0.003448 19:0.437931 20:0.058621 21:0.003448 22:0 23:0 24:0 25:0 26:0 27:0 28:0 29:0 30:0 31:0 32:0 33:0 34:0 35:0 36:0 37:0 38:0 39:0.02069 40:0.47931 41:0 42:0 43:0 44:0 45:0 46:0.024138 47:0.034483 48:0.031034 49:0.027586 50:0.024138 51:0.031034 52:0.051724 53:0.051724 54:0.065517 55:0.158621 
1 0 1:0.02069 2:0.075862 3:0.103448 4:0.096552 5:0.051724 6:0.024138 7:0.062069 8:0.017241 9:0.010345 10:0.02069 11:0.010345 12:0 13:0.003448 14:0 15:0 16:0 17:0 18:0.003448 19:0.437931 20:0.058621 21:0.003448 22:0 23:0 24:0 25:0 26:0 27:0 28:0 29:0 30:0 31:0 32:0 33:0 34:0 35:0 36:0 37:0 38:0 39:0.02069 40:0.47931 41:0 42:0 43:0 44:0 45:0 46:0.024138 47:0.034483 48:0.031034 49:0.027586 50:0.024138 51:0.031034 52:0.051724 53:0.051724 54:0.065517 55:0.158621 
1 0 1:0.02069 2:0.075862 3:0.103448 4:0.096552 5:0.051724 6:0.024138 7:0.062069 8:0.017241 9:0.010345 10:0.02069 11:0.010345 12:0 13:0.003448 14:0 15:0 16:0 17:0 18:0.003448 19:0.437931 20:0.058621 21:0.003448 22:0 23:0 24:0 25:0 26:0 27:0 28:0 29:0 30:0 31:0 32:0 33:0 34:0 35:0 36:0 37:0 38:0 39:0.02069 40:0.47931 41:0 42:0 43:0 44:0 45:0 46:0.024138 47:0.034483 48:0.031034 49:0.027586 50:0.024138 51:0.031034 52:0.051724 53:0.051724 54:0.065517 55:0.158621 
1 0 1:0.02069 2:0.075862 3:0.103448 4:0.096552 5:0.051724 6:0.024138 7:0.062069 8:0.017241 9:0.010345 10:0.02069 11:0.010345 12:0 13:0.003448 14:0 15:0 16:0 17:0 18:0.003448 19:0.437931 20:0.058621 21:0.003448 22:0 23:0 24:0 25:0 26:0 27:0 28:0 29:0 30:0 31:0 32:0 33:0 34:0 35:0 36:0 37:0 38:0 39:0.02069 40:0.47931 41:0 42:0 43:0 44:0 45:0 46:0.024138 47:0.034483 48:0.031034 49:0.027586 50:0.024138 51:0.031034 52:0.051724 53:0.051724 54:0.065517 55:0.158621 
1 0 1:0.02069 2:0.075862 3:0.103448 4:0.096552 5:0.051724 6:0.024138 7:0.062069 8:0.017241 9:0.010345 10:0.02069 11:0.010345 12:0 13:0.003448 14:0 15:0 16:0 17:0 18:0.003448 19:0.437931 20:0.058621 21:0.003448 22:0 23:0 24:0 25:0 26:0 27:0 28:0 29:0 30:0 31:0 32:0 33:0 34:0 35:0 36:0 37:0 38:0 39:0.02069 40:0.47931 41:0 42:0 43:0 44:0 45:0 46:0.024138 47:0.034483 48:0.031034 49:0.027586 50:0.024138 51:0.031034 52:0.051724 53:0.051724 54:0.065517 55:0.158621 
1 0 1:0.02069 2:0.075862 3:0.103448 4:0.096552 5:0.051724 6:0.024138 7:0.062069 8:0.017241 9:0.010345 10:0.02069 11:0.010345 12:0 13:0.003448 14:0 15:0 16:0 17:0 18:0.003448 19:0.437931 20:0.058621 21:0.003448 22:0 23:0 24:0 25:0 26:0 27:0 28:0 29:0 30:0 31:0 32:0 33:0 34:0 35:0 36:0 37:0 38:0 39:0.02069 40:0.47931 41:0 42:0 43:0 44:0 45:0 46:0.024138 47:0.034483 48:0.031034 49:0.027586 50:0.024138 51:0.031034 52:0.051724 53:0.051724 54:0.065517 55:0.158621 
1 0 1:0.02069 2:0.075862 3:0.103448 4:0.096552 5:0.051724 6:0.024138 7:0.062069 8:0.017241 9:0.010345 10:0.02069 11:0.010345 12:0 13:0.003448 14:0 15:0 16:0 17:0 18:0.003448 19:0.437931 20:0.058621 21:0.003448 22:0 23:0 24:0 25:0 26:0 27:0 28:0 29:0 30:0 31:0 32:0 33:0 34:0 35:0 36:0 37:0 38:0 39:0.02069 40:0.47931 41:0 42:0 43:0 44:0 45:0 46:0.024138 47:0.034483 48:0.031034 49:0.027586 50:0.024138 51:0.031034 52:0.051724 53:0.051724 54:0.065517 55:0.158621 
1 0 1:0.02069 2:0.075862 3:0.103448 4:0.096552 5:0.051724 6:0.024138 7:0.062069 8:0.017241 9:0.010345 10:0.02069 11:0.010345 12:0 13:0.003448 14:0 15:0 16:0 17:0 18:0.003448 19:0.437931 20:0.058621 21:0.003448 22:0 23:0 24:0 25:0 26:0 27:0 28:0 29:0 30:0 31:0 32:0 33:0 34:0 35:0 36:0 37:0 38:0 39:0.02069 40:0.47931 41:0 42:0 43:0 44:0 45:0 46:0.024138 47:0.034483 48:0.031034 49:0.027586 50:0.024138 51:0.031034 52:0.051724 53:0.051724 54:0.065517 55:0.158621 
0.3908998606377514 0 1:0.010417 2:0.097222 3:0.072917 4:0.128472 5:0.072917 6:0.027778 7:0.038194 8:0.010417 9:0 10:0.027778 11:0.006944 12:0 13:0.003472 14:0.003472 15:0 16:0 17:0 18:0 19:0.413194 20:0.083333 21:0.003472 22:0 23:0 24:0 25:0 26:0 27:0 28:0 29:0 30:0 31:0 32:0 33:0 34:0 35:0 36:0 37:0 38:0 39:0.027778 40:0.472222 41:0 42:0 43:0 44:0 45:0 46:0.03125 47:0.03125 48:0.020833 49:0.027778 50:0.048611 51:0.03125 52:0.052083 53:0.0625 54:0.065972 55:0.128472 
1 0 1:0.010417 2:0.097222 3:0.072917 4:0.128472 5:0.072917 6:0.027778 7:0.038194 8:0.010417 9:0 10:0.027778 11:0.006944 12:0 13:0.003472 14:0.003472 15:0 16:0 17:0 18:0 19:0.413194 20:0.083333 21:0.003472 22:0 23:0 24:0 25:0 26:0 27:0 28:0 29:0 30:0 31:0 32:0 33:0 34:0 35:0 36:0 37:0 38:0 39:0.027778 40:0.472222 41:0 42:0 43:0 44:0 45:0 46:0.03125 47:0.03125 48:0.020833 49:0.027778 50:0.048611 51:0.03125 52:0.052083 53:0.0625 54:0.065972 55:0.128472 
1 0 1:0.010417 2:0.097222 3:0.072917 4:0.128472 5:0.072917 6:0.027778 7:0.038194 8:0.010417 9:0 10:0.027778 11:0.006944 12:0 13:0.003472 14:0.003472 15:0 16:0 17:0 18:0 19:0.413194 20:0.083333 21:0.003472 22:0 23:0 24:0 25:0 26:0 27:0 28:0 29:0 30:0 31:0 32:0 33:0 34:0 35:0 36:0 37:0 38:0 39:0.027778 40:0.472222 41:0 42:0 43:0 44:0 45:0 46:0.03125 47:0.03125 48:0.020833 49:0.027778 50:0.048611 51:0.03125 52:0.052083 53:0.0625 54:0.065972 55:0.128472 
0.9720533364766175 0 1:0.010417 2:0.097222 3:0.072917 4:0.128472 5:0.072917 6:0.027778 7:0.038194 8:0.010417 9:0 10:0.027778 11:0.006944 12:0 13:0.003472 14:0.003472 15:0 16:0 17:0 18:0 19:0.413194 20:0.083333 21:0.003472 22:0 23:0 24:0 25:0 26:0 27:0 28:0 29:0 30:0 31:0 32:0 33:0 34:0 35:0 36:0 37:0 38:0 39:0.027778 40:0.472222 41:0 42:0 43:0 44:0 45:0 46:0.03125 47:0.03125 48:0.020833 49:0.027778 50:0.048611 51:0.03125 52:0.052083 53:0.0625 54:0.065972 55:0.128472 
1 0 1:0.094737 2:0.105263 3:0.021053 4:0.028947 5:0.013158 6:0.005263 7:0.015789 8:0.002632 9:0.005263 10:0.021053 11:0.05 12:0.023684 13:0.05 14:0.007895 15:0.005263 16:0.031579 17:0.013158 18:0.005263 19:0.371053 20:0.123684 21:0.005263 22:0 23:0 24:0 25:0 26:0 27:0 28:0 29:0 30:0 31:0 32:0 33:0 34:0 35:0 36:0 37:0 38:0 39:0.002632 40:0.028947 41:0.410526 42:0.057895 43:0 44:0 45:0 46:0.044737 47:0.031579 48:0.026316 49:0.031579 50:0.026316 51:0.028947 52:0.055263 53:0.052632 54:0.047368 55:0.155263 
1 0 1:0.094737 2:0.105263 3:0.021053 4:0.028947 5:0.013158 6:0.005263 7:0.015789 8:0.002632 9:0.005263 10:0.021053 11:0.05 12:0.023684 13:0.05 14:0.007895 15:0.005263 16:0.031579 17:0.013158 18:0.005263 19:0.371053 20:0.123684 21:0.005263 22:0 23:0 24:0 25:0 26:0 27:0 28:0 29:0 30:0 31:0 32:0 33:0 34:0 35:0 36:0 37:0 38:0 39:0.002632 40:0.028947 41:0.410526 42:0.057895 43:0 44:0 45:0 46:0.044737 47:0.031579 48:0.026316 49:0.031579 50:0.026316 51:0.028947 52:0.055263 53:0.052632 54:0.047368 55:0.155263 
1 0 1:0.094737 2:0.105263 3:0.021053 4:0.028947 5:0.013158 6:0.005263 7:0.015789 8:0.002632 9:0.005263 10:0.021053 11:0.05 12:0.023684 13:0.05 14:0.007895 15:0.005263 16:0.031579 17:0.013158 18:0.005263 19:0.371053 20:0.123684 21:0.005263 22:0 23:0 24:0 25:0 26:0 27:0 28:0 29:0 30:0 31:0 32:0 33:0 34:0 35:0 36:0 37:0 38:0 39:0.002632 40:0.028947 41:0.410526 42:0.057895 43:0 44:0 45:0 46:0.044737 47:0.031579 48:0.026316 49:0.031579 50:0.026316 51:0.028947 52:0.055263 53:0.052632 54:0.047368 55:0.155263 
1 0 1:0.094737 2:0.105263 3:0.021053 4:0.028947 5:0.013158 6:0.005263 7:0.015789 8:0.002632 9:0.005263 10:0.021053 11:0.05 12:0.023684 13:0.05 14:0.007895 15:0.005263 16:0.031579 17:0.013158 18:0.005263 19:0.371053 20:0.123684 21:0.005263 22:0 23:0 24:0 25:0 26:0 27:0 28:0 29:0 30:0 31:0 32:0 33:0 34:0 35:0 36:0 37:0 38:0 39:0.002632 40:0.028947 41:0.410526 42:0.057895 43:0 44:0 45:0 46:0.044737 47:0.031579 48:0.026316 49:0.031579 50:0.026316 51:0.028947 52:0.055263 53:0.052632 54:0.047368 55:0.155263 
1 0 1:0.094737 2:0.105263 3:0.021053 4:0.028947 5:0.013158 6:0.005263 7:0.015789 8:0.002632 9:0.005263 10:0.021053 11:0.05 12:0.023684 13:0.05 14:0.007895 15:0.005263 16:0.031579 17:0.013158 18:0.005263 19:0.371053 20:0.123684 21:0.005263 22:0 23:0 24:0 25:0 26:0 27:0 28:0 29:0 30:0 31:0 32:0 33:0 34:0 35:0 36:0 37:0 38:0 39:0.002632 40:0.028947 41:0.410526 42:0.057895 43:0 44:0 45:0 46:0.044737 47:0.031579 48:0.026316 49:0.031579 50:0.026316 51:0.028947 52:0.055263 53:0.052632 54:0.047368 55:0.155263 
1 0 1:0.094737 2:0.105263 3:0.021053 4:0.028947 5:0.013158 6:0.005263 7:0.015789 8:0.002632 9:0.005263 10:0.021053 11:0.05 12:0.023684 13:0.05 14:0.007895 15:0.005263 16:0.031579 17:0.013158 18:0.005263 19:0.371053 20:0.123684 21:0.005263 22:0 23:0 24:0 25:0 26:0 27:0 28:0 29:0 30:0 31:0 32:0 33:0 34:0 35:0 36:0 37:0 38:0 39:0.002632 40:0.028947 41:0.410526 42:0.057895 43:0 44:0 45:0 46:0.044737 47:0.031579 48:0.026316 49:0.031579 50:0.026316 51:0.028947 52:0.055263 53:0.052632 54:0.047368 55:0.155263 
1 0 1:0.094737 2:0.105263 3:0.021053 4:0.028947 5:0.013158 6:0.005263 7:0.015789 8:0.002632 9:0.005263 10:0.021053 11:0.05 12:0.023684 13:0.05 14:0.007895 15:0.005263 16:0.031579 17:0.013158 18:0.005263 19:0.371053 20:0.123684 21:0.005263 22:0 23:0 24:0 25:0 26:0 27:0 28:0 29:0 30:0 31:0 32:0 33:0 34:0 35:0 36:0 37:0 38:0 39:0.002632 40:0.028947 41:0.410526 42:0.057895 43:0 44:0 45:0 46:0.044737 47:0.031579 48:0.026316 49:0.031579 50:0.026316 51:0.028947 52:0.055263 53:0.052632 54:0.047368 55:0.155263 
1 0 1:0.094737 2:0.105263 3:0.021053 4:0.028947 5:0.013158 6:0.005263 7:0.015789 8:0.002632 9:0.005263 10:0.021053 11:0.05 12:0.023684 13:0.05 14:0.007895 15:0.005263 16:0.031579 17:0.013158 18:0.005263 19:0.371053 20:0.123684 21:0.005263 22:0 23:0 24:0 25:0 26:0 27:0 28:0 29:0 30:0 31:0 32:0 33:0 34:0 35:0 36:0 37:0 38:0 39:0.002632 40:0.028947 41:0.410526 42:0.057895 43:0 44:0 45:0 46:0.044737 47:0.031579 48:0.026316 49:0.031579 50:0.026316 51:0.028947 52:0.055263 53:0.052632 54:0.047368 55:0.155263 
1 0 1:0.094737 2:0.105263 3:0.021053 4:0.028947 5:0.013158 6:0.005263 7:0.015789 8:0.002632 9:0.005263 10:0.021053 11:0.05 12:0.023684 13:0.05 14:0.007895 15:0.005263 16:0.031579 17:0.013158 18:0.005263 19:0.371053 20:0.123684 21:0.005263 22:0 23:0 24:0 25:0 26:0 27:0 28:0 29:0 30:0 31:0 32:0 33:0 34:0 35:0 36:0 37:0 38:0 39:0.002632 40:0.028947 41:0.410526 42:0.057895 43:0 44:0 45:0 46:0.044737 47:0.031579 48:0.026316 49:0.031579 50:0.026316 51:0.028947 52:0.055263 53:0.052632 54:0.047368 55:0.155263 
1 0 1:0.094737 2:0.105263 3:0.021053 4:0.028947 5:0.013158 6:0.005263 7:0.015789 8:0.002632 9:0.005263 10:0.021053 11:0.05 12:0.023684 13:0.05 14:0.007895 15:0.005263 16:0.031579 17:0.013158 18:0.005263 19:0.371053 20:0.123684 21:0.005263 22:0 23:0 24:0 25:0 26:0 27:0 28:0 29:0 30:0 31:0 32:0 33:0 34:0 35:0 36:0 37:0 38:0 39:0.002632 40:0.028947 41:0.410526 42:0.057895 43:0 44:0 45:0 46:0.044737 47:0.031579 48:0.026316 49:0.031579 50:0.026316 51:0.028947 52:0.055263 53:0.052632 54:0.047368 55:0.155263 
1 0 1:0.094737 2:0.105263 3:0.021053 4:0.028947 5:0.013158 6:0.005263 7:0.015789 8:0.002632 9:0.005263 10:0.021053 11:0.05 12:0.023684 13:0.05 14:0.007895 15:0.005263 16:0.031579 17:0.013158 18:0.005263 19:0.371053 20:0.123684 21:0.005263 22:0 23:0 24:0 25:0 26:0 27:0 28:0 29:0 30:0 31:0 32:0 33:0 34:0 35:0 36:0 37:0 38:0 39:0.002632 40:0.028947 41:0.410526 42:0.057895 43:0 44:0 45:0 46:0.044737 47:0.031579 48:0.026316 49:0.031579 50:0.026316 51:0.028947 52:0.055263 53:0.052632 54:0.047368 55:0.155263 
1 0 1:0.094737 2:0.105263 3:0.021053 4:0.028947 5:0.013158 6:0.005263 7:0.015789 8:0.002632 9:0.005263 10:0.021053 11:0.05 12:0.023684 13:0.05 14:0.007895 15:0.005263 16:0.031579 17:0.013158 18:0.005263 19:0.371053 20:0.123684 21:0.005263 22:0 23:0 24:0 25:0 26:0 27:0 28:0 29:0 30:0 31:0 32:0 33:0 34:0 35:0 36:0 37:0 38:0 39:0.002632 40:0.028947 41:0.410526 42:0.057895 43:0 44:0 45:0 46:0.044737 47:0.031579 48:0.026316 49:0.031579 50:0.026316 51:0.028947 52:0.055263 53:0.052632 54:0.047368 55:0.155263 
1 0 1:0.094737 2:0.105263 3:0.021053 4:0.028947 5:0.013158 6:0.005263 7:0.015789 8:0.002632 9:0.005263 10:0.021053 11:0.05 12:0.023684 13:0.05 14:0.007895 15:0.005263 16:0.031579 17:0.013158 18:0.005263 19:0.371053 20:0.123684 21:0.005263 22:0 23:0 24:0 25:0 26:0 27:0 28:0 29:0 30:0 31:0 32:0 33:0 34:0 35:0 36:0 37:0 38:0 39:0.002632 40:0.028947 41:0.410526 42:0.057895 43:0 44:0 45:0 46:0.044737 47:0.031579 48:0.026316 49:0.031579 50:0.026316 51:0.028947 52:0.055263 53:0.052632 54:0.047368 55:0.155263 
1 0 1:0.094737 2:0.105263 3:0.021053 4:0.028947 5:0.013158 6:0.005263 7:0.015789 8:0.002632 9:0.005263 10:0.021053 11:0.05 12:0.023684 13:0.05 14:0.007895 15:0.005263 16:0.031579 17:0.013158 18:0.005263 19:0.371053 20:0.123684 21:0.005263 22:0 23:0 24:0 25:0 26:0 27:0 28:0 29:0 30:0 31:0 32:0 33:0 34:0 35:0 36:0 37:0 38:0 39:0.002632 40:0.028947 41:0.410526 42:0.057895 43:0 44:0 45:0 46:0.044737 47:0.031579 48:0.026316 49:0.031579 50:0.026316 51:0.028947 52:0.055263 53:0.052632 54:0.047368 55:0.155263 
1 0 1:0.094737 2:0.105263 3:0.021053 4:0.028947 5:0.013158 6:0.005263 7:0.015789 8:0.002632 9:0.005263 10:0.021053 11:0.05 12:0.023684 13:0.05 14:0.007895 15:0.005263 16:0.031579 17:0.013158 18:0.005263 19:0.371053 20:0.123684 21:0.005263 22:0 23:0 24:0 25:0 26:0 27:0 28:0 29:0 30:0 31:0 32:0 33:0 34:0 35:0 36:0 37:0 38:0 39:0.002632 40:0.028947 41:0.410526 42:0.057895 43:0 44:0 45:0 46:0.044737 47:0.031579 48:0.026316 49:0.031579 50:0.026316 51:0.028947 52:0.055263 53:0.052632 54:0.047368 55:0.155263 
1 0 1:0.094737 2:0.105263 3:0.021053 4:0.028947 5:0.013158 6:0.005263 7:0.015789 8:0.002632 9:0.005263 10:0.021053 11:0.05 12:0.023684 13:0.05 14:0.007895 15:0.005263 16:0.031579 17:0.013158 18:0.005263 19:0.371053 20:0.123684 21:0.005263 22:0 23:0 24:0 25:0 26:0 27:0 28:0 29:0 30:0 31:0 32:0 33:0 34:0 35:0 36:0 37:0 38:0 39:0.002632 40:0.028947 41:0.410526 42:0.057895 43:0 44:0 45:0 46:0.044737 47:0.031579 48:0.026316 49:0.031579 50:0.026316 51:0.028947 52:0.055263 53:0.052632 54:0.047368 55:0.155263 
1 0 1:0.094737 2:0.105263 3:0.021053 4:0.028947 5:0.013158 6:0.005263 7:0.015789 8:0.002632 9:0.005263 10:0.021053 11:0.05 12:0.023684 13:0.05 14:0.007895 15:0.005263 16:0.031579 17:0.013158 18:0.005263 19:0.371053 20:0.123684 21:0.005263 22:0 23:0 24:0 25:0 26:0 27:0 28:0 29:0 30:0 31:0 32:0 33:0 34:0 35:0 36:0 37:0 38:0 39:0.002632 40:0.028947 41:0.410526 42:0.057895 43:0 44:0 45:0 46:0.044737 47:0.031579 48:0.026316 49:0.031579 50:0.026316 51:0.028947 52:0.055263 53:0.052632 54:0.047368 55:0.155263 
1 0 1:0.094737 2:0.105263 3:0.021053 4:0.028947 5:0.013158 6:0.005263 7:0.015789 8:0.002632 9:0.005263 10:0.021053 11:0.05 12:0.023684 13:0.05 14:0.007895 15:0.005263 16:0.031579 17:0.013158 18:0.005263 19:0.371053 20:0.123684 21:0.005263 22:0 23:0 24:0 25:0 26:0 27:0 28:0 29:0 30:0 31:0 32:0 33:0 34:0 35:0 36:0 37:0 38:0 39:0.002632 40:0.028947 41:0.410526 42:0.057895 43:0 44:0 45:0 46:0.044737 47:0.031579 48:0.026316 49:0.031579 50:0.026316 51:0.028947 52:0.055263 53:0.052632 54:0.047368 55:0.155263 
1 0 1:0.094737 2:0.105263 3:0.021053 4:0.028947 5:0.013158 6:0.005263 7:0.015789 8:0.002632 9:0.005263 10:0.021053 11:0.05 12:0.023684 13:0.05 14:0.007895 15:0.005263 16:0.031579 17:0.013158 18:0.005263 19:0.371053 20:0.123684 21:0.005263 22:0 23:0 24:0 25:0 26:0 27:0 28:0 29:0 30:0 31:0 32:0 33:0 34:0 35:0 36:0 37:0 38:0 39:0.002632 40:0.028947 41:0.410526 42:0.057895 43:0 44:0 45:0 46:0.044737 47:0.031579 48:0.026316 49:0.031579 50:0.026316 51:0.028947 52:0.055263 53:0.052632 54:0.047368 55:0.155263 
1 0 1:0.094737 2:0.105263 3:0.021053 4:0.028947 5:0.013158 6:0.005263 7:0.015789 8:0.002632 9:0.005263 10:0.021053 11:0.05 12:0.023684 13:0.05 14:0.007895 15:0.005263 16:0.031579 17:0.013158 18:0.005263 19:0.371053 20:0.123684 21:0.005263 22:0 23:0 24:0 25:0 26:0 27:0 28:0 29:0 30:0 31:0 32:0 33:0 34:0 35:0 36:0 37:0 38:0 39:0.002632 40:0.028947 41:0.410526 42:0.057895 43:0 44:0 45:0 46:0.044737 47:0.031579 48:0.026316 49:0.031579 50:0.026316 51:0.028947 52:0.055263 53:0.052632 54:0.047368 55:0.155263 
1 0 1:0.099138 2:0.090517 3:0.012931 4:0.00431 5:0 6:0 7:0.00431 8:0.008621 9:0.00431 10:0.00431 11:0.021552 12:0.038793 13:0.064655 14:0.008621 15:0.030172 16:0.021552 17:0.017241 18:0.068966 19:0.318966 20:0.163793 21:0.017241 22:0 23:0 24:0 25:0 26:0 27:0 28:0 29:0 30:0 31:0 32:0 33:0 34:0 35:0 36:0 37:0 38:0 39:0 40:0.012931 41:0.219828 42:0.262931 43:0.00431 44:0 45:0 46:0.021552 47:0.043103 48:0.021552 49:0.043103 50:0.056034 51:0.034483 52:0.038793 53:0.043103 54:0.064655 55:0.133621 
1 0 1:0.099138 2:0.090517 3:0.012931 4:0.00431 5:0 6:0 7:0.00431 8:0.008621 9:0.00431 10:0.00431 11:0.021552 12:0.038793 13:0.064655 14:0.008621 15:0.030172 16:0.021552 17:0.017241 18:0.068966 19:0.318966 20:0.163793 21:0.017241 22:0 23:0 24:0 25:0 26:0 27:0 28:0 29:0 30:0 31:0 32:0 33:0 34:0 35:0 36:0 37:0 38:0 39:0 40:0.012931 41:0.219828 42:0.262931 43:0.00431 44:0 45:0 46:0.021552 47:0.043103 48:0.021552 49:0.043103 50:0.056034 51:0.034483 52:0.038793 53:0.043103 54:0.064655 55:0.133621 
1 0 1:0.099138 2:0.090517 3:0.012931 4:0.00431 5:0 6:0 7:0.00431 8:0.008621 9:0.00431 10:0.00431 11:0.021552 12:0.038793 13:0.064655 14:0.008621 15:0.030172 16:0.021552 17:0.017241 18:0.068966 19:0.318966 20:0.163793 21:0.017241 22:0 23:0 24:0 25:0 26:0 27:0 28:0 29:0 30:0 31:0 32:0 33:0 34:0 35:0 36:0 37:0 38:0 39:0 40:0.012931 41:0.219828 42:0.262931 43:0.00431 44:0 45:0 46:0.021552 47:0.043103 48:0.021552 49:0.043103 50:0.056034 51:0.034483 52:0.038793 53:0.043103 54:0.064655 55:0.133621 
1 0 1:0.099138 2:0.090517 3:0.012931 4:0.00431 5:0 6:0 7:0.00431 8:0.008621 9:0.00431 10:0.00431 11:0.021552 12:0.038793 13:0.064655 14:0.008621 15:0.030172 16:0.021552 17:0.017241 18:0.068966 19:0.318966 20:0.163793 21:0.017241 22:0 23:0 24:0 25:0 26:0 27:0 28:0 29:0 30:0 31:0 32:0 33:0 34:0 35:0 36:0 37:0 38:0 39:0 40:0.012931 41:0.219828 42:0.262931 43:0.00431 44:0 45:0 46:0.021552 47:0.043103 48:0.021552 49:0.043103 50:0.056034 51:0.034483 52:0.038793 53:0.043103 54:0.064655 55:0.133621 
1 0 1:0.099138 2:0.090517 3:0.012931 4:0.00431 5:0 6:0 7:0.00431 8:0.008621 9:0.00431 10:0.00431 11:0.021552 12:0.038793 13:0.064655 14:0.008621 15:0.030172 16:0.021552 17:0.017241 18:0.068966 19:0.318966 20:0.163793 21:0.017241 22:0 23:0 24:0 25:0 26:0 27:0 28:0 29:0 30:0 31:0 32:0 33:0 34:0 35:0 36:0 37:0 38:0 39:0 40:0.012931 41:0.219828 42:0.262931 43:0.00431 44:0 45:0 46:0.021552 47:0.043103 48:0.021552 49:0.043103 50:0.056034 51:0.034483 52:0.038793 53:0.043103 54:0.064655 55:0.133621 
1 0 1:0.099138 2:0.090517 3:0.012931 4:0.00431 5:0 6:0 7:0.00431 8:0.008621 9:0.00431 10:0.00431 11:0.021552 12:0.038793 13:0.064655 14:0.008621 15:0.030172 16:0.021552 17:0.017241 18:0.068966 19:0.318966 20:0.163793 21:0.017241 22:0 23:0 24:0 25:0 26:0 27:0 28:0 29:0 30:0 31:0 32:0 33:0 34:0 35:0 36:0 37:0 38:0 39:0 40:0.012931 41:0.219828 42:0.262931 43:0.00431 44:0 45:0 46:0.021552 47:0.043103 48:0.021552 49:0.043103 50:0.056034 51:0.034483 52:0.038793 53:0.043103 54:0.064655 55:0.133621 
1 0 1:0.099138 2:0.090517 3:0.012931 4:0.00431 5:0 6:0 7:0.00431 8:0.008621 9:0.00431 10:0.00431 11:0.021552 12:0.038793 13:0.064655 14:0.008621 15:0.030172 16:0.021552 17:0.017241 18:0.068966 19:0.318966 20:0.163793 21:0.017241 22:0 23:0 24:0 25:0 26:0 27:0 28:0 29:0 30:0 31:0 32:0 33:0 34:0 35:0 36:0 37:0 38:0 39:0 40:0.012931 41:0.219828 42:0.262931 43:0.00431 44:0 45:0 46:0.021552 47:0.043103 48:0.021552 49:0.043103 50:0.056034 51:0.034483 52:0.038793 53:0.043103 54:0.064655 55:0.133621 
1 0 1:0.099138 2:0.090517 3:0.012931 4:0.00431 5:0 6:0 7:0.00431 8:0.008621 9:0.00431 10:0.00431 11:0.021552 12:0.038793 13:0.064655 14:0.008621 15:0.030172 16:0.021552 17:0.017241 18:0.068966 19:0.318966 20:0.163793 21:0.017241 22:0 23:0 24:0 25:0 26:0 27:0 28:0 29:0 30:0 31:0 32:0 33:0 34:0 35:0 36:0 37:0 38:0 39:0 40:0.012931 41:0.219828 42:0.262931 43:0.00431 44:0 45:0 46:0.021552 47:0.043103 48:0.021552 49:0.043103 50:0.056034 51:0.034483 52:0.038793 53:0.043103 54:0.064655 55:0.133621 
1 0 1:0.099138 2:0.090517 3:0.012931 4:0.00431 5:0 6:0 7:0.00431 8:0.008621 9:0.00431 10:0.00431 11:0.021552 12:0.038793 13:0.064655 14:0.008621 15:0.030172 16:0.021552 17:0.017241 18:0.068966 19:0.318966 20:0.163793 21:0.017241 22:0 23:0 24:0 25:0 26:0 27:0 28:0 29:0 30:0 31:0 32:0 33:0 34:0 35:0 36:0 37:0 38:0 39:0 40:0.012931 41:0.219828 42:0.262931 43:0.00431 44:0 45:0 46:0.021552 47:0.043103 48:0.021552 49:0.043103 50:0.056034 51:0.034483 52:0.038793 53:0.043103 54:0.064655 55:0.133621 
1 0 1:0.099138 2:0.090517 3:0.012931 4:0.00431 5:0 6:0 7:0.00431 8:0.008621 9:0.00431 10:0.00431 11:0.021552 12:0.038793 13:0.064655 14:0.008621 15:0.030172 16:0.021552 17:0.017241 18:0.068966 19:0.318966 20:0.163793 21:0.017241 22:0 23:0 24:0 25:0 26:0 27:0 28:0 29:0 30:0 31:0 32:0 33:0 34:0 35:0 36:0 37:0 38:0 39:0 40:0.012931 41:0.219828 42:0.262931 43:0.00431 44:0 45:0 46:0.021552 47:0.043103 48:0.021552 49:0.043103 50:0.056034 51:0.034483 52:0.038793 53:0.043103 54:0.064655 55:0.133621 
1 0 1:0.099138 2:0.090517 3:0.012931 4:0.00431 5:0 6:0 7:0.00431 8:0.008621 9:0.00431 10:0.00431 11:0.021552 12:0.038793 13:0.064655 14:0.008621 15:0.030172 16:0.021552 17:0.017241 18:0.068966 19:0.318966 20:0.163793 21:0.017241 22:0 23:0 24:0 25:0 26:0 27:0 28:0 29:0 30:0 31:0 32:0 33:0 34:0 35:0 36:0 37:0 38:0 39:0 40:0.012931 41:0.219828 42:0.262931 43:0.00431 44:0 45:0 46:0.021552 47:0.043103 48:0.021552 49:0.043103 50:0.056034 51:0.034483 52:0.038793 53:0.043103 54:0.064655 55:0.133621 
1 0 1:0.099138 2:0.090517 3:0.012931 4:0.00431 5:0 6:0 7:0.00431 8:0.008621 9:0.00431 10:0.00431 11:0.021552 12:0.038793 13:0.064655 14:0.008621 15:0.030172 16:0.021552 17:0.017241 18:0.068966 19:0.318966 20:0.163793 21:0.017241 22:0 23:0 24:0 25:0 26:0 27:0 28:0 29:0 30:0 31:0 32:0 33:0 34:0 35:0 36:0 37:0 38:0 39:0 40:0.012931 41:0.219828 42:0.262931 43:0.00431 44:0 45:0 46:0.021552 47:0.043103 48:0.021552 49:0.043103 50:0.056034 51:0.034483 52:0.038793 53:0.043103 54:0.064655 55:0.133621 
1 0 1:0.099138 2:0.090517 3:0.012931 4:0.00431 5:0 6:0 7:0.00431 8:0.008621 9:0.00431 10:0.00431 11:0.021552 12:0.038793 13:0.064655 14:0.008621 15:0.030172 16:0.021552 17:0.017241 18:0.068966 19:0.318966 20:0.163793 21:0.017241 22:0 23:0 24:0 25:0 26:0 27:0 28:0 29:0 30:0 31:0 32:0 33:0 34:0 35:0 36:0 37:0 38:0 39:0 40:0.012931 41:0.219828 42:0.262931 43:0.00431 44:0 45:0 46:0.021552 47:0.043103 48:0.021552 49:0.043103 50:0.056034 51:0.034483 52:0.038793 53:0.043103 54:0.064655 55:0.133621 
1 0 1:0.099138 2:0.090517 3:0.012931 4:0.00431 5:0 6:0 7:0.00431 8:0.008621 9:0.00431 10:0.00431 11:0.021552 12:0.038793 13:0.064655 14:0.008621 15:0.030172 16:0.021552 17:0.017241 18:0.068966 19:0.318966 20:0.163793 21:0.017241 22:0 23:0 24:0 25:0 26:0 27:0 28:0 29:0 30:0 31:0 32:0 33:0 34:0 35:0 36:0 37:0 38:0 39:0 40:0.012931 41:0.219828 42:0.262931 43:0.00431 44:0 45:0 46:0.021552 47:0.043103 48:0.021552 49:0.043103 50:0.056034 51:0.034483 52:0.038793 53:0.043103 54:0.064655 55:0.133621 
1 0 1:0.099138 2:0.090517 3:0.012931 4:0.00431 5:0 6:0 7:0.00431 8:0.008621 9:0.00431 10:0.00431 11:0.021552 12:0.038793 13:0.064655 14:0.008621 15:0.030172 16:0.021552 17:0.017241 18:0.068966 19:0.318966 20:0.163793 21:0.017241 22:0 23:0 24:0 25:0 26:0 27:0 28:0 29:0 30:0 31:0 32:0 33:0 34:0 35:0 36:0 37:0 38:0 39:0 40:0.012931 41:0.219828 42:0.262931 43:0.00431 44:0 45:0 46:0.021552 47:0.043103 48:0.021552 49:0.043103 50:0.056034 51:0.034483 52:0.038793 53:0.043103 54:0.064655 55:0.133621 
1 0 1:0.099138 2:0.090517 3:0.012931 4:0.00431 5:0 6:0 7:0.00431 8:0.008621 9:0.00431 10:0.00431 11:0.021552 12:0.038793 13:0.064655 14:0.008621 15:0.030172 16:0.021552 17:0.017241 18:0.068966 19:0.318966 20:0.163793 21:0.017241 22:0 23:0 24:0 25:0 26:0 27:0 28:0 29:0 30:0 31:0 32:0 33:0 34:0 35:0 36:0 37:0 38:0 39:0 40:0.012931 41:0.219828 42:0.262931 43:0.00431 44:0 45:0 46:0.021552 47:0.043103 48:0.021552 49:0.043103 50:0.056034 51:0.034483 52:0.038793 53:0.043103 54:0.064655 55:0.133621 
1 0 1:0.099138 2:0.090517 3:0.012931 4:0.00431 5:0 6:0 7:0.00431 8:0.008621 9:0.00431 10:0.00431 11:0.021552 12:0.038793 13:0.064655 14:0.008621 15:0.030172 16:0.021552 17:0.017241 18:0.068966 19:0.318966 20:0.163793 21:0.017241 22:0 23:0 24:0 25:0 26:0 27:0 28:0 29:0 30:0 31:0 32:0 33:0 34:0 35:0 36:0 37:0 38:0 39:0 40:0.012931 41:0.219828 42:0.262931 43:0.00431 44:0 45:0 46:0.021552 47:0.043103 48:0.021552 49:0.043103 50:0.056034 51:0.034483 52:0.038793 53:0.043103 54:0.064655 55:0.133621 
1 0 1:0.099138 2:0.090517 3:0.012931 4:0.00431 5:0 6:0 7:0.00431 8:0.008621 9:0.00431 10:0.00431 11:0.021552 12:0.038793 13:0.064655 14:0.008621 15:0.030172 16:0.021552 17:0.017241 18:0.068966 19:0.318966 20:0.163793 21:0.017241 22:0 23:0 24:0 25:0 26:0 27:0 28:0 29:0 30:0 31:0 32:0 33:0 34:0 35:0 36:0 37:0 38:0 39:0 40:0.012931 41:0.219828 42:0.262931 43:0.00431 44:0 45:0 46:0.021552 47:0.043103 48:0.021552 49:0.043103 50:0.056034 51:0.034483 52:0.038793 53:0.043103 54:0.064655 55:0.133621 
1 0.8145779448084127 1:0.099138 2:0.090517 3:0.012931 4:0.00431 5:0 6:0 7:0.00431 8:0.008621 9:0.00431 10:0.00431 11:0.021552 12:0.038793 13:0.064655 14:0.008621 15:0.030172 16:0.021552 17:0.017241 18:0.068966 19:0.318966 20:0.163793 21:0.017241 22:0 23:0 24:0 25:0 26:0 27:0 28:0 29:0 30:0 31:0 32:0 33:0 34:0 35:0 36:0 37:0 38:0 39:0 40:0.012931 41:0.219828 42:0.262931 43:0.00431 44:0 45:0 46:0.021552 47:0.043103 48:0.021552 49:0.043103 50:0.056034 51:0.034483 52:0.038793 53:0.043103 54:0.064655 55:0.133621 
1 1 1:0.099138 2:0.090517 3:0.012931 4:0.00431 5:0 6:0 7:0.00431 8:0.008621 9:0.00431 10:0.00431 11:0.021552 12:0.038793 13:0.064655 14:0.008621 15:0.030172 16:0.021552 17:0.017241 18:0.068966 19:0.318966 20:0.163793 21:0.017241 22:0 23:0 24:0 25:0 26:0 27:0 28:0 29:0 30:0 31:0 32:0 33:0 34:0 35:0 36:0 37:0 38:0 39:0 40:0.012931 41:0.219828 42:0.262931 43:0.00431 44:0 45:0 46:0.021552 47:0.043103 48:0.021552 49:0.043103 50:0.056034 51:0.034483 52:0.038793 53:0.043103 54:0.064655 55:0.133621 
1 0 1:0.125 2:0.084559 3:0 4:0.007353 5:0.003676 6:0.003676 7:0.003676 8:0.003676 9:0 10:0.007353 11:0.022059 12:0.051471 13:0.055147 14:0.033088 15:0.007353 16:0.018382 17:0.047794 18:0.025735 19:0.294118 20:0.191176 21:0.014706 22:0 23:0 24:0 25:0 26:0 27:0 28:0 29:0 30:0 31:0 32:0 33:0 34:0 35:0 36:0 37:0 38:0 39:0 40:0.011029 41:0.198529 42:0.272059 43:0.018382 44:0 45:0 46:0.025735 47:0.044118 48:0.033088 49:0.044118 50:0.025735 51:0.051471 52:0.029412 53:0.069853 54:0.036765 55:0.139706 
1 0 1:0.125 2:0.084559 3:0 4:0.007353 5:0.003676 6:0.003676 7:0.003676 8:0.003676 9:0 10:0.007353 11:0.022059 12:0.051471 13:0.055147 14:0.033088 15:0.007353 16:0.018382 17:0.047794 18:0.025735 19:0.294118 20:0.191176 21:0.014706 22:0 23:0 24:0 25:0 26:0 27:0 28:0 29:0 30:0 31:0 32:0 33:0 34:0 35:0 36:0 37:0 38:0 39:0 40:0.011029 41:0.198529 42:0.272059 43:0.018382 44:0 45:0 46:0.025735 47:0.044118 48:0.033088 49:0.044118 50:0.025735 51:0.051471 52:0.029412 53:0.069853 54:0.036765 55:0.139706 
1 0 1:0.125 2:0.084559 3:0 4:0.007353 5:0.003676 6:0.003676 7:0.003676 8:0.003676 9:0 10:0.007353 11:0.022059 12:0.051471 13:0.055147 14:0.033088 15:0.007353 16:0.018382 17:0.047794 18:0.025735 19:0.294118 20:0.191176 21:0.014706 22:0 23:0 24:0 25:0 26:0 27:0 28:0 29:0 30:0 31:0 32:0 33:0 34:0 35:0 36:0 37:0 38:0 39:0 40:0.011029 41:0.198529 42:0.272059 43:0.018382 44:0 45:0 46:0.025735 47:0.044118 48:0.033088 49:0.044118 50:0.025735 51:0.051471 52:0.029412 53:0.069853 54:0.036765 55:0.139706 
1 0 1:0.125 2:0.084559 3:0 4:0.007353 5:0.003676 6:0.003676 7:0.003676 8:0.003676 9:0 10:0.007353 11:0.022059 12:0.051471 13:0.055147 14:0.033088 15:0.007353 16:0.018382 17:0.047794 18:0.025735 19:0.294118 20:0.191176 21:0.014706 22:0 23:0 24:0 25:0 26:0 27:0 28:0 29:0 30:0 31:0 32:0 33:0 34:0 35:0 36:0 37:0 38:0 39:0 40:0.011029 41:0.198529 42:0.272059 43:0.018382 44:0 45:0 46:0.025735 47:0.044118 48:0.033088 49:0.044118 50:0.025735 51:0.051471 52:0.029412 53:0.069853 54:0.036765 55:0.139706 
1 0 1:0.125 2:0.084559 3:0 4:0.007353 5:0.003676 6:0.003676 7:0.003676 8:0.003676 9:0 10:0.007353 11:0.022059 12:0.051471 13:0.055147 14:0.033088 15:0.007353 16:0.018382 17:0.047794 18:0.025735 19:0.294118 20:0.191176 21:0.014706 22:0 23:0 24:0 25:0 26:0 27:0 28:0 29:0 30:0 31:0 32:0 33:0 34:0 35:0 36:0 37:0 38:0 39:0 40:0.011029 41:0.198529 42:0.272059 43:0.018382 44:0 45:0 46:0.025735 47:0.044118 48:0.033088 49:0.044118 50:0.025735 51:0.051471 52:0.029412 53:0.069853 54:0.036765 55:0.139706 
1 0 1:0.125 2:0.084559 3:0 4:0.007353 5:0.003676 6:0.003676 7:0.003676 8:0.003676 9:0 10:0.007353 11:0.022059 12:0.051471 13:0.055147 14:0.033088 15:0.007353 16:0.018382 17:0.047794 18:0.025735 19:0.294118 20:0.191176 21:0.014706 22:0 23:0 24:0 25:0 26:0 27:0 28:0 29:0 30:0 31:0 32:0 33:0 34:0 35:0 36:0 37:0 38:0 39:0 40:0.011029 41:0.198529 42:0.272059 43:0.018382 44:0 45:0 46:0.025735 47:0.044118 48:0.033088 49:0.044118 50:0.025735 51:0.051471 52:0.029412 53:0.069853 54:0.036765 55:0.139706 
1 0 1:0.125 2:0.084559 3:0 4:0.007353 5:0.003676 6:0.003676 7:0.003676 8:0.003676 9:0 10:0.007353 11:0.022059 12:0.051471 13:0.055147 14:0.033088 15:0.007353 16:0.018382 17:0.047794 18:0.025735 19:0.294118 20:0.191176 21:0.014706 22:0 23:0 24:0 25:0 26:0 27:0 28:0 29:0 30:0 31:0 32:0 33:0 34:0 35:0 36:0 37:0 38:0 39:0 40:0.011029 41:0.198529 42:0.272059 43:0.018382 44:0 45:0 46:0.025735 47:0.044118 48:0.033088 49:0.044118 50:0.025735 51:0.051471 52:0.029412 53:0.069853 54:0.036765 55:0.139706 
1 0 1:0.125 2:0.084559 3:0 4:0.007353 5:0.003676 6:0.003676 7:0.003676 8:0.003676 9:0 10:0.007353 11:0.022059 12:0.051471 13:0.055147 14:0.033088 15:0.007353 16:0.018382 17:0.047794 18:0.025735 19:0.294118 20:0.191176 21:0.014706 22:0 23:0 24:0 25:0 26:0 27:0 28:0 29:0 30:0 31:0 32:0 33:0 34:0 35:0 36:0 37:0 38:0 39:0 40:0.011029 41:0.198529 42:0.272059 43:0.018382 44:0 45:0 46:0.025735 47:0.044118 48:0.033088 49:0.044118 50:0.025735 51:0.051471 52:0.029412 53:0.069853 54:0.036765 55:0.139706 
1 0 1:0.125 2:0.084559 3:0 4:0.007353 5:0.003676 6:0.003676 7:0.003676 8:0.003676 9:0 10:0.007353 11:0.022059 12:0.051471 13:0.055147 14:0.033088 15:0.007353 16:0.018382 17:0.047794 18:0.025735 19:0.294118 20:0.191176 21:0.014706 22:0 23:0 24:0 25:0 26:0 27:0 28:0 29:0 30:0 31:0 32:0 33:0 34:0 35:0 36:0 37:0 38:0 39:0 40:0.011029 41:0.198529 42:0.272059 43:0.018382 44:0 45:0 46:0.025735 47:0.044118 48:0.033088 49:0.044118 50:0.025735 51:0.051471 52:0.029412 53:0.069853 54:0.036765 55:0.139706 
1 0 1:0.125 2:0.084559 3:0 4:0.007353 5:0.003676 6:0.003676 7:0.003676 8:0.003676 9:0 10:0.007353 11:0.022059 12:0.051471 13:0.055147 14:0.033088 15:0.007353 16:0.018382 17:0.047794 18:0.025735 19:0.294118 20:0.191176 21:0.014706 22:0 23:0 24:0 25:0 26:0 27:0 28:0 29:0 30:0 31:0 32:0 33:0 34:0 35:0 36:0 37:0 38:0 39:0 40:0.011029 41:0.198529 42:0.272059 43:0.018382 44:0 45:0 46:0.025735 47:0.044118 48:0.033088 49:0.044118 50:0.025735 51:0.051471 52:0.029412 53:0.069853 54:0.036765 55:0.139706 
1 0 1:0.125 2:0.084559 3:0 4:0.007353 5:0.003676 6:0.003676 7:0.003676 8:0.003676 9:0 10:0.007353 11:0.022059 12:0.051471 13:0.055147 14:0.033088 15:0.007353 16:0.018382 17:0.047794 18:0.025735 19:0.294118 20:0.191176 21:0.014706 22:0 23:0 24:0 25:0 26:0 27:0 28:0 29:0 30:0 31:0 32:0 33:0 34:0 35:0 36:0 37:0 38:0 39:0 40:0.011029 41:0.198529 42:0.272059 43:0.018382 44:0 45:0 46:0.025735 47:0.044118 48:0.033088 49:0.044118 50:0.025735 51:0.051471 52:0.029412 53:0.069853 54:0.036765 55:0.139706 
1 0 1:0.125 2:0.084559 3:0 4:0.007353 5:0.003676 6:0.003676 7:0.003676 8:0.003676 9:0 10:0.007353 11:0.022059 12:0.051471 13:0.055147 14:0.033088 15:0.007353 16:0.018382 17:0.047794 18:0.025735 19:0.294118 20:0.191176 21:0.014706 22:0 23:0 24:0 25:0 26:0 27:0 28:0 29:0 30:0 31:0 32:0 33:0 34:0 35:0 36:0 37:0 38:0 39:0 40:0.011029 41:0.198529 42:0.272059 43:0.018382 44:0 45:0 46:0.025735 47:0.044118 48:0.033088 49:0.044118 50:0.025735 51:0.051471 52:0.029412 53:0.069853 54:0.036765 55:0.139706 
1 0 1:0.125 2:0.084559 3:0 4:0.007353 5:0.003676 6:0.003676 7:0.003676 8:0.003676 9:0 10:0.007353 11:0.022059 12:0.051471 13:0.055147 14:0.033088 15:0.007353 16:0.018382 17:0.047794 18:0.025735 19:0.294118 20:0.191176 21:0.014706 22:0 23:0 24:0 25:0 26:0 27:0 28:0 29:0 30:0 31:0 32:0 33:0 34:0 35:0 36:0 37:0 38:0 39:0 40:0.011029 41:0.198529 42:0.272059 43:0.018382 44:0 45:0 46:0.025735 47:0.044118 48:0.033088 49:0.044118 50:0.025735 51:0.051471 52:0.029412 53:0.069853 54:0.036765 55:0.139706 
1 0 1:0.125 2:0.084559 3:0 4:0.007353 5:0.003676 6:0.003676 7:0.003676 8:0.003676 9:0 10:0.007353 11:0.022059 12:0.051471 13:0.055147 14:0.033088 15:0.007353 16:0.018382 17:0.047794 18:0.025735 19:0.294118 20:0.191176 21:0.014706 22:0 23:0 24:0 25:0 26:0 27:0 28:0 29:0 30:0 31:0 32:0 33:0 34:0 35:0 36:0 37:0 38:0 39:0 40:0.011029 41:0.198529 42:0.272059 43:0.018382 44:0 45:0 46:0.025735 47:0.044118 48:0.033088 49:0.044118 50:0.025735 51:0.051471 52:0.029412 53:0.069853 54:0.036765 55:0.139706 
1 0 1:0.125 2:0.084559 3:0 4:0.007353 5:0.003676 6:0.003676 7:0.003676 8:0.003676 9:0 10:0.007353 11:0.022059 12:0.051471 13:0.055147 14:0.033088 15:0.007353 16:0.018382 17:0.047794 18:0.025735 19:0.294118 20:0.191176 21:0.014706 22:0 23:0 24:0 25:0 26:0 27:0 28:0 29:0 30:0 31:0 32:0 33:0 34:0 35:0 36:0 37:0 38:0 39:0 40:0.011029 41:0.198529 42:0.272059 43:0.018382 44:0 45:0 46:0.025735 47:0.044118 48:0.033088 49:0.044118 50:0.025735 51:0.051471 52:0.029412 53:0.069853 54:0.036765 55:0.139706 
1 0 1:0.125 2:0.084559 3:0 4:0.007353 5:0.003676 6:0.003676 7:0.003676 8:0.003676 9:0 10:0.007353 11:0.022059 12:0.051471 13:0.055147 14:0.033088 15:0.007353 16:0.018382 17:0.047794 18:0.025735 19:0.294118 20:0.191176 21:0.014706 22:0 23:0 24:0 25:0 26:0 27:0 28:0 29:0 30:0 31:0 32:0 33:0 34:0 35:0 36:0 37:0 38:0 39:0 40:0.011029 41:0.198529 42:0.272059 43:0.018382 44:0 45:0 46:0.025735 47:0.044118 48:0.033088 49:0.044118 50:0.025735 51:0.051471 52:0.029412 53:0.069853 54:0.036765 55:0.139706 
1 0 1:0.125 2:0.084559 3:0 4:0.007353 5:0.003676 6:0.003676 7:0.003676 8:0.003676 9:0 10:0.007353 11:0.022059 12:0.051471 13:0.055147 14:0.033088 15:0.007353 16:0.018382 17:0.047794 18:0.025735 19:0.294118 20:0.191176 21:0.014706 22:0 23:0 24:0 25:0 26:0 27:0 28:0 29:0 30:0 31:0 32:0 33:0 34:0 35:0 36:0 37:0 38:0 39:0 40:0.011029 41:0.198529 42:0.272059 43:0.018382 44:0 45:0 46:0.025735 47:0.044118 48:0.033088 49:0.044118 50:0.025735 51:0.051471 52:0.029412 53:0.069853 54:0.036765 55:0.139706 
1 0 1:0.125 2:0.084559 3:0 4:0.007353 5:0.003676 6:0.003676 7:0.003676 8:0.003676 9:0 10:0.007353 11:0.022059 12:0.051471 13:0.055147 14:0.033088 15:0.007353 16:0.018382 17:0.047794 18:0.025735 19:0.294118 20:0.191176 21:0.014706 22:0 23:0 24:0 25:0 26:0 27:0 28:0 29:0 30:0 31:0 32:0 33:0 34:0 35:0 36:0 37:0 38:0 39:0 40:0.011029 41:0.198529 42:0.272059 43:0.018382 44:0 45:0 46:0.025735 47:0.044118 48:0.033088 49:0.044118 50:0.025735 51:0.051471 52:0.029412 53:0.069853 54:0.036765 55:0.139706 
1 0 1:0.125 2:0.084559 3:0 4:0.007353 5:0.003676 6:0.003676 7:0.003676 8:0.003676 9:0 10:0.007353 11:0.022059 12:0.051471 13:0.055147 14:0.033088 15:0.007353 16:0.018382 17:0.047794 18:0.025735 19:0.294118 20:0.191176 21:0.014706 22:0 23:0 24:0 25:0 26:0 27:0 28:0 29:0 30:0 31:0 32:0 33:0 34:0 35:0 36:0 37:0 38:0 39:0 40:0.011029 41:0.198529 42:0.272059 43:0.018382 44:0 45:0 46:0.025735 47:0.044118 48:0.033088 49:0.044118 50:0.025735 51:0.051471 52:0.029412 53:0.069853 54:0.036765 55:0.139706 
1 0 1:0.125 2:0.084559 3:0 4:0.007353 5:0.003676 6:0.003676 7:0.003676 8:0.003676 9:0 10:0.007353 11:0.022059 12:0.051471 13:0.055147 14:0.033088 15:0.007353 16:0.018382 17:0.047794 18:0.025735 19:0.294118 20:0.191176 21:0.014706 22:0 23:0 24:0 25:0 26:0 27:0 28:0 29:0 30:0 31:0 32:0 33:0 34:0 35:0 36:0 37:0 38:0 39:0 40:0.011029 41:0.198529 42:0.272059 43:0.018382 44:0 45:0 46:0.025735 47:0.044118 48:0.033088 49:0.044118 50:0.025735 51:0.051471 52:0.029412 53:0.069853 54:0.036765 55:0.139706 
1 0 1:0.031496 2:0.137795 3:0.102362 4:0.114173 5:0.043307 6:0.007874 7:0.031496 8:0 9:0.011811 10:0.015748 11:0 12:0 13:0 14:0 15:0 16:0.003937 17:0 18:0 19:0.354331 20:0.145669 21:0 22:0 23:0 24:0 25:0 26:0 27:0 28:0 29:0 30:0 31:0 32:0 33:0 34:0 35:0 36:0 37:0 38:0 39:0.5 40:0 41:0 42:0 43:0 44:0 45:0 46:0.019685 47:0.03937 48:0.015748 49:0.035433 50:0.062992 51:0.066929 52:0.059055 53:0.070866 54:0.035433 55:0.094488 
1 0 1:0.031496 2:0.137795 3:0.102362 4:0.114173 5:0.043307 6:0.007874 7:0.031496 8:0 9:0.011811 10:0.015748 11:0 12:0 13:0 14:0 15:0 16:0.003937 17:0 18:0 19:0.354331 20:0.145669 21:0 22:0 23:0 24:0 25:0 26:0 27:0 28:0 29:0 30:0 31:0 32:0 33:0 34:0 35:0 36:0 37:0 38:0 39:0.5 40:0 41:0 42:0 43:0 44:0 45:0 46:0.019685 47:0.03937 48:0.015748 49:0.035433 50:0.062992 51:0.066929 52:0.059055 53:0.070866 54:0.035433 55:0.094488 
1 0 1:0.031496 2:0.137795 3:0.102362 4:0.114173 5:0.043307 6:0.007874 7:0.031496 8:0 9:0.011811 10:0.015748 11:0 12:0 13:0 14:0 15:0 16:0.003937 17:0 18:0 19:0.354331 20:0.145669 21:0 22:0 23:0 24:0 25:0 26:0 27:0 28:0 29:0 30:0 31:0 32:0 33:0 34:0 35:0 36:0 37:0 38:0 39:0.5 40:0 41:0 42:0 43:0 44:0 45:0 46:0.019685 47:0.03937 48:0.015748 49:0.035433 50:0.062992 51:0.066929 52:0.059055 53:0.070866 54:0.035433 55:0.094488 
1 0 1:0.031496 2:0.137795 3:0.102362 4:0.114173 5:0.043307 6:0.007874 7:0.031496 8:0 9:0.011811 10:0.015748 11:0 12:0 13:0 14:0 15:0 16:0.003937 17:0 18:0 19:0.354331 20:0.145669 21:0 22:0 23:0 24:0 25:0 26:0 27:0 28:0 29:0 30:0 31:0 32:0 33:0 34:0 35:0 36:0 37:0 38:0 39:0.5 40:0 41:0 42:0 43:0 44:0 45:0 46:0.019685 47:0.03937 48:0.015748 49:0.035433 50:0.062992 51:0.066929 52:0.059055 53:0.070866 54:0.035433 55:0.094488 
1 0 1:0.031496 2:0.137795 3:0.102362 4:0.114173 5:0.043307 6:0.007874 7:0.031496 8:0 9:0.011811 10:0.015748 11:0 12:0 13:0 14:0 15:0 16:0.003937 17:0 18:0 19:0.354331 20:0.145669 21:0 22:0 23:0 24:0 25:0 26:0 27:0 28:0 29:0 30:0 31:0 32:0 33:0 34:0 35:0 36:0 37:0 38:0 39:0.5 40:0 41:0 42:0 43:0 44:0 45:0 46:0.019685 47:0.03937 48:0.015748 49:0.035433 50:0.062992 51:0.066929 52:0.059055 53:0.070866 54:0.035433 55:0.094488 
1 0 1:0.031496 2:0.137795 3:0.102362 4:0.114173 5:0.043307 6:0.007874 7:0.031496 8:0 9:0.011811 10:0.015748 11:0 12:0 13:0 14:0 15:0 16:0.003937 17:0 18:0 19:0.354331 20:0.145669 21:0 22:0 23:0 24:0 25:0 26:0 27:0 28:0 29:0 30:0 31:0 32:0 33:0 34:0 35:0 36:0 37:0 38:0 39:0.5 40:0 41:0 42:0 43:0 44:0 45:0 46:0.019685 47:0.03937 48:0.015748 49:0.035433 50:0.062992 51:0.066929 52:0.059055 53:0.070866 54:0.035433 55:0.094488 
1 0 1:0.031496 2:0.137795 3:0.102362 4:0.114173 5:0.043307 6:0.007874 7:0.031496 8:0 9:0.011811 10:0.015748 11:0 12:0 13:0 14:0 15:0 16:0.003937 17:0 18:0 19:0.354331 20:0.145669 21:0 22:0 23:0 24:0 25:0 26:0 27:0 28:0 29:0 30:0 31:0 32:0 33:0 34:0 35:0 36:0 37:0 38:0 39:0.5 40:0 41:0 42:0 43:0 44:0 45:0 46:0.019685 47:0.03937 48:0.015748 49:0.035433 50:0.062992 51:0.066929 52:0.059055 53:0.070866 54:0.035433 55:0.094488 
1 0 1:0.031496 2:0.137795 3:0.102362 4:0.114173 5:0.043307 6:0.007874 7:0.031496 8:0 9:0.011811 10:0.015748 11:0 12:0 13:0 14:0 15:0 16:0.003937 17:0 18:0 19:0.354331 20:0.145669 21:0 22:0 23:0 24:0 25:0 26:0 27:0 28:0 29:0 30:0 31:0 32:0 33:0 34:0 35:0 36:0 37:0 38:0 39:0.5 40:0 41:0 42:0 43:0 44:0 45:0 46:0.019685 47:0.03937 48:0.015748 49:0.035433 50:0.062992 51:0.066929 52:0.059055 53:0.070866 54:0.035433 55:0.094488 
1 0 1:0.031496 2:0.137795 3:0.102362 4:0.114173 5:0.043307 6:0.007874 7:0.031496 8:0 9:0.011811 10:0.015748 11:0 12:0 13:0 14:0 15:0 16:0.003937 17:0 18:0 19:0.354331 20:0.145669 21:0 22:0 23:0 24:0 25:0 26:0 27:0 28:0 29:0 30:0 31:0 32:0 33:0 34:0 35:0 36:0 37:0 38:0 39:0.5 40:0 41:0 42:0 43:0 44:0 45:0 46:0.019685 47:0.03937 48:0.015748 49:0.035433 50:0.062992 51:0.066929 52:0.059055 53:0.070866 54:0.035433 55:0.094488 
1 0 1:0.031496 2:0.137795 3:0.102362 4:0.114173 5:0.043307 6:0.007874 7:0.031496 8:0 9:0.011811 10:0.015748 11:0 12:0 13:0 14:0 15:0 16:0.003937 17:0 18:0 19:0.354331 20:0.145669 21:0 22:0 23:0 24:0 25:0 26:0 27:0 28:0 29:0 30:0 31:0 32:0 33:0 34:0 35:0 36:0 37:0 38:0 39:0.5 40:0 41:0 42:0 43:0 44:0 45:0 46:0.019685 47:0.03937 48:0.015748 49:0.035433 50:0.062992 51:0.066929 52:0.059055 53:0.070866 54:0.035433 55:0.094488 
1 0 1:0.031496 2:0.137795 3:0.102362 4:0.114173 5:0.043307 6:0.007874 7:0.031496 8:0 9:0.011811 10:0.015748 11:0 12:0 13:0 14:0 15:0 16:0.003937 17:0 18:0 19:0.354331 20:0.145669 21:0 22:0 23:0 24:0 25:0 26:0 27:0 28:0 29:0 30:0 31:0 32:0 33:0 34:0 35:0 36:0 37:0 38:0 39:0.5 40:0 41:0 42:0 43:0 44:0 45:0 46:0.019685 47:0.03937 48:0.015748 49:0.035433 50:0.062992 51:0.066929 52:0.059055 53:0.070866 54:0.035433 55:0.094488 
1 0 1:0.031496 2:0.137795 3:0.102362 4:0.114173 5:0.043307 6:0.007874 7:0.031496 8:0 9:0.011811 10:0.015748 11:0 12:0 13:0 14:0 15:0 16:0.003937 17:0 18:0 19:0.354331 20:0.145669 21:0 22:0 23:0 24:0 25:0 26:0 27:0 28:0 29:0 30:0 31:0 32:0 33:0 34:0 35:0 36:0 37:0 38:0 39:0.5 40:0 41:0 42:0 43:0 44:0 45:0 46:0.019685 47:0.03937 48:0.015748 49:0.035433 50:0.062992 51:0.066929 52:0.059055 53:0.070866 54:0.035433 55:0.094488 
1 0 1:0.031496 2:0.137795 3:0.102362 4:0.114173 5:0.043307 6:0.007874 7:0.031496 8:0 9:0.011811 10:0.015748 11:0 12:0 13:0 14:0 15:0 16:0.003937 17:0 18:0 19:0.354331 20:0.145669 21:0 22:0 23:0 24:0 25:0 26:0 27:0 28:0 29:0 30:0 31:0 32:0 33:0 34:0 35:0 36:0 37:0 38:0 39:0.5 40:0 41:0 42:0 43:0 44:0 45:0 46:0.019685 47:0.03937 48:0.015748 49:0.035433 50:0.062992 51:0.066929 52:0.059055 53:0.070866 54:0.035433 55:0.094488 
1 0 1:0.031496 2:0.137795 3:0.102362 4:0.114173 5:0.043307 6:0.007874 7:0.031496 8:0 9:0.011811 10:0.015748 11:0 12:0 13:0 14:0 15:0 16:0.003937 17:0 18:0 19:0.354331 20:0.145669 21:0 22:0 23:0 24:0 25:0 26:0 27:0 28:0 29:0 30:0 31:0 32:0 33:0 34:0 35:0 36:0 37:0 38:0 39:0.5 40:0 41:0 42:0 43:0 44:0 45:0 46:0.019685 47:0.03937 48:0.015748 49:0.035433 50:0.062992 51:0.066929 52:0.059055 53:0.070866 54:0.035433 55:0.094488 
1 0 1:0.031496 2:0.137795 3:0.102362 4:0.114173 5:0.043307 6:0.007874 7:0.031496 8:0 9:0.011811 10:0.015748 11:0 12:0 13:0 14:0 15:0 16:0.003937 17:0 18:0 19:0.354331 20:0.145669 21:0 22:0 23:0 24:0 25:0 26:0 27:0 28:0 29:0 30:0 31:0 32:0 33:0 34:0 35:0 36:0 37:0 38:0 39:0.5 40:0 41:0 42:0 43:0 44:0 45:0 46:0.019685 47:0.03937 48:0.015748 49:0.035433 50:0.062992 51:0.066929 52:0.059055 53:0.070866 54:0.035433 55:0.094488 
1 0 1:0.031496 2:0.137795 3:0.102362 4:0.114173 5:0.043307 6:0.007874 7:0.031496 8:0 9:0.011811 10:0.015748 11:0 12:0 13:0 14:0 15:0 16:0.003937 17:0 18:0 19:0.354331 20:0.145669 21:0 22:0 23:0 24:0 25:0 26:0 27:0 28:0 29:0 30:0 31:0 32:0 33:0 34:0 35:0 36:0 37:0 38:0 39:0.5 40:0 41:0 42:0 43:0 44:0 45:0 46:0.019685 47:0.03937 48:0.015748 49:0.035433 50:0.062992 51:0.066929 52:0.059055 53:0.070866 54:0.035433 55:0.094488 
1 0 1:0.031496 2:0.137795 3:0.102362 4:0.114173 5:0.043307 6:0.007874 7:0.031496 8:0 9:0.011811 10:0.015748 11:0 12:0 13:0 14:0 15:0 16:0.003937 17:0 18:0 19:0.354331 20:0.145669 21:0 22:0 23:0 24:0 25:0 26:0 27:0 28:0 29:0 30:0 31:0 32:0 33:0 34:0 35:0 36:0 37:0 38:0 39:0.5 40:0 41:0 42:0 43:0 44:0 45:0 46:0.019685 47:0.03937 48:0.015748 49:0.035433 50:0.062992 51:0.066929 52:0.059055 53:0.070866 54:0.035433 55:0.094488 
1 0 1:0.031496 2:0.137795 3:0.102362 4:0.114173 5:0.043307 6:0.007874 7:0.031496 8:0 9:0.011811 10:0.015748 11:0 12:0 13:0 14:0 15:0 16:0.003937 17:0 18:0 19:0.354331 20:0.145669 21:0 22:0 23:0 24:0 25:0 26:0 27:0 28:0 29:0 30:0 31:0 32:0 33:0 34:0 35:0 36:0 37:0 38:0 39:0.5 40:0 41:0 42:0 43:0 44:0 45:0 46:0.019685 47:0.03937 48:0.015748 49:0.035433 50:0.062992 51:0.066929 52:0.059055 53:0.070866 54:0.035433 55:0.094488 
1 0 1:0.031496 2:0.137795 3:0.102362 4:0.114173 5:0.043307 6:0.007874 7:0.031496 8:0 9:0.011811 10:0.015748 11:0 12:0 13:0 14:0 15:0 16:0.003937 17:0 18:0 19:0.354331 20:0.145669 21:0 22:0 23:0 24:0 25:0 26:0 27:0 28:0 29:0 30:0 31:0 32:0 33:0 34:0 35:0 36:0 37:0 38:0 39:0.5 40:0 41:0 42:0 43:0 44:0 45:0 46:0.019685 47:0.03937 48:0.015748 49:0.035433 50:0.062992 51:0.066929 52:0.059055 53:0.070866 54:0.035433 55:0.094488 
1 0 1:0.031496 2:0.137795 3:0.102362 4:0.114173 5:0.043307 6:0.007874 7:0.031496 8:0 9:0.011811 10:0.015748 11:0 12:0 13:0 14:0 15:0 16:0.003937 17:0 18:0 19:0.354331 20:0.145669 21:0 22:0 23:0 24:0 25:0 26:0 27:0 28:0 29:0 30:0 31:0 32:0 33:0 34:0 35:0 36:0 37:0 38:0 39:0.5 40:0 41:0 42:0 43:0 44:0 45:0 46:0.019685 47:0.03937 48:0.015748 49:0.035433 50:0.062992 51:0.066929 52:0.059055 53:0.070866 54:0.035433 55:0.094488 
1 0 1:0.101351 2:0.114865 3:0.027027 4:0.006757 5:0.010135 6:0.003378 7:0.010135 8:0.003378 9:0.006757 10:0.013514 11:0.047297 12:0.023649 13:0.047297 14:0.016892 15:0 16:0.016892 17:0.023649 18:0.027027 19:0.327703 20:0.138514 21:0.033784 22:0 23:0 24:0 25:0 26:0 27:0 28:0 29:0 30:0 31:0 32:0 33:0 34:0 35:0 36:0 37:0 38:0 39:0 40:0.010135 41:0.317568 42:0.172297 43:0 44:0 45:0 46:0.047297 47:0.040541 48:0.02027 49:0.016892 50:0.027027 51:0.027027 52:0.040541 53:0.060811 54:0.054054 55:0.165541 
1 0 1:0.101351 2:0.114865 3:0.027027 4:0.006757 5:0.010135 6:0.003378 7:0.010135 8:0.003378 9:0.006757 10:0.013514 11:0.047297 12:0.023649 13:0.047297 14:0.016892 15:0 16:0.016892 17:0.023649 18:0.027027 19:0.327703 20:0.138514 21:0.033784 22:0 23:0 24:0 25:0 26:0 27:0 28:0 29:0 30:0 31:0 32:0 33:0 34:0 35:0 36:0 37:0 38:0 39:0 40:0.010135 41:0.317568 42:0.172297 43:0 44:0 45:0 46:0.047297 47:0.040541 48:0.02027 49:0.016892 50:0.027027 51:0.027027 52:0.040541 53:0.060811 54:0.054054 55:0.165541 
1 0 1:0.101351 2:0.114865 3:0.027027 4:0.006757 5:0.010135 6:0.003378 7:0.010135 8:0.003378 9:0.006757 10:0.013514 11:0.047297 12:0.023649 13:0.047297 14:0.016892 15:0 16:0.016892 17:0.023649 18:0.027027 19:0.327703 20:0.138514 21:0.033784 22:0 23:0 24:0 25:0 26:0 27:0 28:0 29:0 30:0 31:0 32:0 33:0 34:0 35:0 36:0 37:0 38:0 39:0 40:0.010135 41:0.317568 42:0.172297 43:0 44:0 45:0 46:0.047297 47:0.040541 48:0.02027 49:0.016892 50:0.027027 51:0.027027 52:0.040541 53:0.060811 54:0.054054 55:0.165541 
1 0 1:0.101351 2:0.114865 3:0.027027 4:0.006757 5:0.010135 6:0.003378 7:0.010135 8:0.003378 9:0.006757 10:0.013514 11:0.047297 12:0.023649 13:0.047297 14:0.016892 15:0 16:0.016892 17:0.023649 18:0.027027 19:0.327703 20:0.138514 21:0.033784 22:0 23:0 24:0 25:0 26:0 27:0 28:0 29:0 30:0 31:0 32:0 33:0 34:0 35:0 36:0 37:0 38:0 39:0 40:0.010135 41:0.317568 42:0.172297 43:0 44:0 45:0 46:0.047297 47:0.040541 48:0.02027 49:0.016892 50:0.027027 51:0.027027 52:0.040541 53:0.060811 54:0.054054 55:0.165541 
1 0 1:0.101351 2:0.114865 3:0.027027 4:0.006757 5:0.010135 6:0.003378 7:0.010135 8:0.003378 9:0.006757 10:0.013514 11:0.047297 12:0.023649 13:0.047297 14:0.016892 15:0 16:0.016892 17:0.023649 18:0.027027 19:0.327703 20:0.138514 21:0.033784 22:0 23:0 24:0 25:0 26:0 27:0 28:0 29:0 30:0 31:0 32:0 33:0 34:0 35:0 36:0 37:0 38:0 39:0 40:0.010135 41:0.317568 42:0.172297 43:0 44:0 45:0 46:0.047297 47:0.040541 48:0.02027 49:0.016892 50:0.027027 51:0.027027 52:0.040541 53:0.060811 54:0.054054 55:0.165541 
1 0 1:0.101351 2:0.114865 3:0.027027 4:0.006757 5:0.010135 6:0.003378 7:0.010135 8:0.003378 9:0.006757 10:0.013514 11:0.047297 12:0.023649 13:0.047297 14:0.016892 15:0 16:0.016892 17:0.023649 18:0.027027 19:0.327703 20:0.138514 21:0.033784 22:0 23:0 24:0 25:0 26:0 27:0 28:0 29:0 30:0 31:0 32:0 33:0 34:0 35:0 36:0 37:0 38:0 39:0 40:0.010135 41:0.317568 42:0.172297 43:0 44:0 45:0 46:0.047297 47:0.040541 48:0.02027 49:0.016892 50:0.027027 51:0.027027 52:0.040541 53:0.060811 54:0.054054 55:0.165541 
1 0 1:0.101351 2:0.114865 3:0.027027 4:0.006757 5:0.010135 6:0.003378 7:0.010135 8:0.003378 9:0.006757 10:0.013514 11:0.047297 12:0.023649 13:0.047297 14:0.016892 15:0 16:0.016892 17:0.023649 18:0.027027 19:0.327703 20:0.138514 21:0.033784 22:0 23:0 24:0 25:0 26:0 27:0 28:0 29:0 30:0 31:0 32:0 33:0 34:0 35:0 36:0 37:0 38:0 39:0 40:0.010135 41:0.317568 42:0.172297 43:0 44:0 45:0 46:0.047297 47:0.040541 48:0.02027 49:0.016892 50:0.027027 51:0.027027 52:0.040541 53:0.060811 54:0.054054 55:0.165541 
1 0 1:0.101351 2:0.114865 3:0.027027 4:0.006757 5:0.010135 6:0.003378 7:0.010135 8:0.003378 9:0.006757 10:0.013514 11:0.047297 12:0.023649 13:0.047297 14:0.016892 15:0 16:0.016892 17:0.023649 18:0.027027 19:0.327703 20:0.138514 21:0.033784 22:0 23:0 24:0 25:0 26:0 27:0 28:0 29:0 30:0 31:0 32:0 33:0 34:0 35:0 36:0 37:0 38:0 39:0 40:0.010135 41:0.317568 42:0.172297 43:0 44:0 45:0 46:0.047297 47:0.040541 48:0.02027 49:0.016892 50:0.027027 51:0.027027 52:0.040541 53:0.060811 54:0.054054 55:0.165541 
1 0 1:0.101351 2:0.114865 3:0.027027 4:0.006757 5:0.010135 6:0.003378 7:0.010135 8:0.003378 9:0.006757 10:0.013514 11:0.047297 12:0.023649 13:0.047297 14:0.016892 15:0 16:0.016892 17:0.023649 18:0.027027 19:0.327703 20:0.138514 21:0.033784 22:0 23:0 24:0 25:0 26:0 27:0 28:0 29:0 30:0 31:0 32:0 33:0 34:0 35:0 36:0 37:0 38:0 39:0 40:0.010135 41:0.317568 42:0.172297 43:0 44:0 45:0 46:0.047297 47:0.040541 48:0.02027 49:0.016892 50:0.027027 51:0.027027 52:0.040541 53:0.060811 54:0.054054 55:0.165541 
1 0 1:0.101351 2:0.114865 3:0.027027 4:0.006757 5:0.010135 6:0.003378 7:0.010135 8:0.003378 9:0.006757 10:0.013514 11:0.047297 12:0.023649 13:0.047297 14:0.016892 15:0 16:0.016892 17:0.023649 18:0.027027 19:0.327703 20:0.138514 21:0.033784 22:0 23:0 24:0 25:0 26:0 27:0 28:0 29:0 30:0 31:0 32:0 33:0 34:0 35:0 36:0 37:0 38:0 39:0 40:0.010135 41:0.317568 42:0.172297 43:0 44:0 45:0 46:0.047297 47:0.040541 48:0.02027 49:0.016892 50:0.027027 51:0.027027 52:0.040541 53:0.060811 54:0.054054 55:0.165541 
1 0 1:0.101351 2:0.114865 3:0.027027 4:0.006757 5:0.010135 6:0.003378 7:0.010135 8:0.003378 9:0.006757 10:0.013514 11:0.047297 12:0.023649 13:0.047297 14:0.016892 15:0 16:0.016892 17:0.023649 18:0.027027 19:0.327703 20:0.138514 21:0.033784 22:0 23:0 24:0 25:0 26:0 27:0 28:0 29:0 30:0 31:0 32:0 33:0 34:0 35:0 36:0 37:0 38:0 39:0 40:0.010135 41:0.317568 42:0.172297 43:0 44:0 45:0 46:0.047297 47:0.040541 48:0.02027 49:0.016892 50:0.027027 51:0.027027 52:0.040541 53:0.060811 54:0.054054 55:0.165541 
1 0 1:0.101351 2:0.114865 3:0.027027 4:0.006757 5:0.010135 6:0.003378 7:0.010135 8:0.003378 9:0.006757 10:0.013514 11:0.047297 12:0.023649 13:0.047297 14:0.016892 15:0 16:0.016892 17:0.023649 18:0.027027 19:0.327703 20:0.138514 21:0.033784 22:0 23:0 24:0 25:0 26:0 27:0 28:0 29:0 30:0 31:0 32:0 33:0 34:0 35:0 36:0 37:0 38:0 39:0 40:0.010135 41:0.317568 42:0.172297 43:0 44:0 45:0 46:0.047297 47:0.040541 48:0.02027 49:0.016892 50:0.027027 51:0.027027 52:0.040541 53:0.060811 54:0.054054 55:0.165541 
1 0 1:0.101351 2:0.114865 3:0.027027 4:0.006757 5:0.010135 6:0.003378 7:0.010135 8:0.003378 9:0.006757 10:0.013514 11:0.047297 12:0.023649 13:0.047297 14:0.016892 15:0 16:0.016892 17:0.023649 18:0.027027 19:0.327703 20:0.138514 21:0.033784 22:0 23:0 24:0 25:0 26:0 27:0 28:0 29:0 30:0 31:0 32:0 33:0 34:0 35:0 36:0 37:0 38:0 39:0 40:0.010135 41:0.317568 42:0.172297 43:0 44:0 45:0 46:0.047297 47:0.040541 48:0.02027 49:0.016892 50:0.027027 51:0.027027 52:0.040541 53:0.060811 54:0.054054 55:0.165541 
1 0 1:0.101351 2:0.114865 3:0.027027 4:0.006757 5:0.010135 6:0.003378 7:0.010135 8:0.003378 9:0.006757 10:0.013514 11:0.047297 12:0.023649 13:0.047297 14:0.016892 15:0 16:0.016892 17:0.023649 18:0.027027 19:0.327703 20:0.138514 21:0.033784 22:0 23:0 24:0 25:0 26:0 27:0 28:0 29:0 30:0 31:0 32:0 33:0 34:0 35:0 36:0 37:0 38:0 39:0 40:0.010135 41:0.317568 42:0.172297 43:0 44:0 45:0 46:0.047297 47:0.040541 48:0.02027 49:0.016892 50:0.027027 51:0.027027 52:0.040541 53:0.060811 54:0.054054 55:0.165541 
1 0 1:0.101351 2:0.114865 3:0.027027 4:0.006757 5:0.010135 6:0.003378 7:0.010135 8:0.003378 9:0.006757 10:0.013514 11:0.047297 12:0.023649 13:0.047297 14:0.016892 15:0 16:0.016892 17:0.023649 18:0.027027 19:0.327703 20:0.138514 21:0.033784 22:0 23:0 24:0 25:0 26:0 27:0 28:0 29:0 30:0 31:0 32:0 33:0 34:0 35:0 36:0 37:0 38:0 39:0 40:0.010135 41:0.317568 42:0.172297 43:0 44:0 45:0 46:0.047297 47:0.040541 48:0.02027 49:0.016892 50:0.027027 51:0.027027 52:0.040541 53:0.060811 54:0.054054 55:0.165541 
1 0 1:0.101351 2:0.114865 3:0.027027 4:0.006757 5:0.010135 6:0.003378 7:0.010135 8:0.003378 9:0.006757 10:0.013514 11:0.047297 12:0.023649 13:0.047297 14:0.016892 15:0 16:0.016892 17:0.023649 18:0.027027 19:0.327703 20:0.138514 21:0.033784 22:0 23:0 24:0 25:0 26:0 27:0 28:0 29:0 30:0 31:0 32:0 33:0 34:0 35:0 36:0 37:0 38:0 39:0 40:0.010135 41:0.317568 42:0.172297 43:0 44:0 45:0 46:0.047297 47:0.040541 48:0.02027 49:0.016892 50:0.027027 51:0.027027 52:0.040541 53:0.060811 54:0.054054 55:0.165541 
1 0 1:0.101351 2:0.114865 3:0.027027 4:0.006757 5:0.010135 6:0.003378 7:0.010135 8:0.003378 9:0.006757 10:0.013514 11:0.047297 12:0.023649 13:0.047297 14:0.016892 15:0 16:0.016892 17:0.023649 18:0.027027 19:0.327703 20:0.138514 21:0.033784 22:0 23:0 24:0 25:0 26:0 27:0 28:0 29:0 30:0 31:0 32:0 33:0 34:0 35:0 36:0 37:0 38:0 39:0 40:0.010135 41:0.317568 42:0.172297 43:0 44:0 45:0 46:0.047297 47:0.040541 48:0.02027 49:0.016892 50:0.027027 51:0.027027 52:0.040541 53:0.060811 54:0.054054 55:0.165541 
1 0 1:0.101351 2:0.114865 3:0.027027 4:0.006757 5:0.010135 6:0.003378 7:0.010135 8:0.003378 9:0.006757 10:0.013514 11:0.047297 12:0.023649 13:0.047297 14:0.016892 15:0 16:0.016892 17:0.023649 18:0.027027 19:0.327703 20:0.138514 21:0.033784 22:0 23:0 24:0 25:0 26:0 27:0 28:0 29:0 30:0 31:0 32:0 33:0 34:0 35:0 36:0 37:0 38:0 39:0 40:0.010135 41:0.317568 42:0.172297 43:0 44:0 45:0 46:0.047297 47:0.040541 48:0.02027 49:0.016892 50:0.027027 51:0.027027 52:0.040541 53:0.060811 54:0.054054 55:0.165541 
1 0 1:0.101351 2:0.114865 3:0.027027 4:0.006757 5:0.010135 6:0.003378 7:0.010135 8:0.003378 9:0.006757 10:0.013514 11:0.047297 12:0.023649 13:0.047297 14:0.016892 15:0 16:0.016892 17:0.023649 18:0.027027 19:0.327703 20:0.138514 21:0.033784 22:0 23:0 24:0 25:0 26:0 27:0 28:0 29:0 30:0 31:0 32:0 33:0 34:0 35:0 36:0 37:0 38:0 39:0 40:0.010135 41:0.317568 42:0.172297 43:0 44:0 45:0 46:0.047297 47:0.040541 48:0.02027 49:0.016892 50:0.027027 51:0.027027 52:0.040541 53:0.060811 54:0.054054 55:0.165541 
1 0 1:0.101351 2:0.114865 3:0.027027 4:0.006757 5:0.010135 6:0.003378 7:0.010135 8:0.003378 9:0.006757 10:0.013514 11:0.047297 12:0.023649 13:0.047297 14:0.016892 15:0 16:0.016892 17:0.023649 18:0.027027 19:0.327703 20:0.138514 21:0.033784 22:0 23:0 24:0 25:0 26:0 27:0 28:0 29:0 30:0 31:0 32:0 33:0 34:0 35:0 36:0 37:0 38:0 39:0 40:0.010135 41:0.317568 42:0.172297 43:0 44:0 45:0 46:0.047297 47:0.040541 48:0.02027 49:0.016892 50:0.027027 51:0.027027 52:0.040541 53:0.060811 54:0.054054 55:0.165541 
0.920356617682309 0 1:0.023077 2:0.103846 3:0.05 4:0.103846 5:0.061538 6:0.015385 7:0.046154 8:0.026923 9:0.011538 10:0.034615 11:0.003846 12:0.003846 13:0.011538 14:0 15:0.003846 16:0 17:0 18:0 19:0.442308 20:0.053846 21:0.003846 22:0 23:0 24:0 25:0 26:0 27:0 28:0 29:0 30:0 31:0 32:0 33:0 34:0 35:0 36:0 37:0 38:0 39:0.069231 40:0.430769 41:0 42:0 43:0 44:0 45:0 46:0.026923 47:0.030769 48:0.030769 49:0.042308 50:0.065385 51:0.038462 52:0.026923 53:0.042308 54:0.046154 55:0.15 
1 0 1:0.023077 2:0.103846 3:0.05 4:0.103846 5:0.061538 6:0.015385 7:0.046154 8:0.026923 9:0.011538 10:0.034615 11:0.003846 12:0.003846 13:0.011538 14:0 15:0.003846 16:0 17:0 18:0 19:0.442308 20:0.053846 21:0.003846 22:0 23:0 24:0 25:0 26:0 27:0 28:0 29:0 30:0 31:0 32:0 33:0 34:0 35:0 36:0 37:0 38:0 39:0.069231 40:0.430769 41:0 42:0 43:0 44:0 45:0 46:0.026923 47:0.030769 48:0.030769 49:0.042308 50:0.065385 51:0.038462 52:0.026923 53:0.042308 54:0.046154 55:0.15 
1 0 1:0.023077 2:0.103846 3:0.05 4:0.103846 5:0.061538 6:0.015385 7:0.046154 8:0.026923 9:0.011538 10:0.034615 11:0.003846 12:0.003846 13:0.011538 14:0 15:0.003846 16:0 17:0 18:0 19:0.442308 20:0.053846 21:0.003846 22:0 23:0 24:0 25:0 26:0 27:0 28:0 29:0 30:0 31:0 32:0 33:0 34:0 35:0 36:0 37:0 38:0 39:0.069231 40:0.430769 41:0 42:0 43:0 44:0 45:0 46:0.026923 47:0.030769 48:0.030769 49:0.042308 50:0.065385 51:0.038462 52:0.026923 53:0.042308 54:0.046154 55:0.15 
1 0 1:0.023077 2:0.103846 3:0.05 4:0.103846 5:0.061538 6:0.015385 7:0.046154 8:0.026923 9:0.011538 10:0.034615 11:0.003846 12:0.003846 13:0.011538 14:0 15:0.003846 16:0 17:0 18:0 19:0.442308 20:0.053846 21:0.003846 22:0 23:0 24:0 25:0 26:0 27:0 28:0 29:0 30:0 31:0 32:0 33:0 34:0 35:0 36:0 37:0 38:0 39:0.069231 40:0.430769 41:0 42:0 43:0 44:0 45:0 46:0.026923 47:0.030769 48:0.030769 49:0.042308 50:0.065385 51:0.038462 52:0.026923 53:0.042308 54:0.046154 55:0.15 
1 0 1:0.023077 2:0.103846 3:0.05 4:0.103846 5:0.061538 6:0.015385 7:0.046154 8:0.026923 9:0.011538 10:0.034615 11:0.003846 12:0.003846 13:0.011538 14:0 15:0.003846 16:0 17:0 18:0 19:0.442308 20:0.053846 21:0.003846 22:0 23:0 24:0 25:0 26:0 27:0 28:0 29:0 30:0 31:0 32:0 33:0 34:0 35:0 36:0 37:0 38:0 39:0.069231 40:0.430769 41:0 42:0 43:0 44:0 45:0 46:0.026923 47:0.030769 48:0.030769 49:0.042308 50:0.065385 51:0.038462 52:0.026923 53:0.042308 54:0.046154 55:0.15 
1 0 1:0.023077 2:0.103846 3:0.05 4:0.103846 5:0.061538 6:0.015385 7:0.046154 8:0.026923 9:0.011538 10:0.034615 11:0.003846 12:0.003846 13:0.011538 14:0 15:0.003846 16:0 17:0 18:0 19:0.442308 20:0.053846 21:0.003846 22:0 23:0 24:0 25:0 26:0 27:0 28:0 29:0 30:0 31:0 32:0 33:0 34:0 35:0 36:0 37:0 38:0 39:0.069231 40:0.430769 41:0 42:0 43:0 44:0 45:0 46:0.026923 47:0.030769 48:0.030769 49:0.042308 50:0.065385 51:0.038462 52:0.026923 53:0.042308 54:0.046154 55:0.15 
1 0 1:0.023077 2:0.103846 3:0.05 4:0.103846 5:0.061538 6:0.015385 7:0.046154 8:0.026923 9:0.011538 10:0.034615 11:0.003846 12:0.003846 13:0.011538 14:0 15:0.003846 16:0 17:0 18:0 19:0.442308 20:0.053846 21:0.003846 22:0 23:0 24:0 25:0 26:0 27:0 28:0 29:0 30:0 31:0 32:0 33:0 34:0 35:0 36:0 37:0 38:0 39:0.069231 40:0.430769 41:0 42:0 43:0 44:0 45:0 46:0.026923 47:0.030769 48:0.030769 49:0.042308 50:0.065385 51:0.038462 52:0.026923 53:0.042308 54:0.046154 55:0.15 
1 0 1:0.023077 2:0.103846 3:0.05 4:0.103846 5:0.061538 6:0.015385 7:0.046154 8:0.026923 9:0.011538 10:0.034615 11:0.003846 12:0.003846 13:0.011538 14:0 15:0.003846 16:0 17:0 18:0 19:0.442308 20:0.053846 21:0.003846 22:0 23:0 24:0 25:0 26:0 27:0 28:0 29:0 30:0 31:0 32:0 33:0 34:0 35:0 36:0 37:0 38:0 39:0.069231 40:0.430769 41:0 42:0 43:0 44:0 45:0 46:0.026923 47:0.030769 48:0.030769 49:0.042308 50:0.065385 51:0.038462 52:0.026923 53:0.042308 54:0.046154 55:0.15 
1 0 1:0.023077 2:0.103846 3:0.05 4:0.103846 5:0.061538 6:0.015385 7:0.046154 8:0.026923 9:0.011538 10:0.034615 11:0.003846 12:0.003846 13:0.011538 14:0 15:0.003846 16:0 17:0 18:0 19:0.442308 20:0.053846 21:0.003846 22:0 23:0 24:0 25:0 26:0 27:0 28:0 29:0 30:0 31:0 32:0 33:0 34:0 35:0 36:0 37:0 38:0 39:0.069231 40:0.430769 41:0 42:0 43:0 44:0 45:0 46:0.026923 47:0.030769 48:0.030769 49:0.042308 50:0.065385 51:0.038462 52:0.026923 53:0.042308 54:0.046154 55:0.15 
1 0 1:0.023077 2:0.103846 3:0.05 4:0.103846 5:0.061538 6:0.015385 7:0.046154 8:0.026923 9:0.011538 10:0.034615 11:0.003846 12:0.003846 13:0.011538 14:0 15:0.003846 16:0 17:0 18:0 19:0.442308 20:0.053846 21:0.003846 22:0 23:0 24:0 25:0 26:0 27:0 28:0 29:0 30:0 31:0 32:0 33:0 34:0 35:0 36:0 37:0 38:0 39:0.069231 40:0.430769 41:0 42:0 43:0 44:0 45:0 46:0.026923 47:0.030769 48:0.030769 49:0.042308 50:0.065385 51:0.038462 52:0.026923 53:0.042308 54:0.046154 55:0.15 
1 0 1:0.023077 2:0.103846 3:0.05 4:0.103846 5:0.061538 6:0.015385 7:0.046154 8:0.026923 9:0.011538 10:0.034615 11:0.003846 12:0.003846 13:0.011538 14:0 15:0.003846 16:0 17:0 18:0 19:0.442308 20:0.053846 21:0.003846 22:0 23:0 24:0 25:0 26:0 27:0 28:0 29:0 30:0 31:0 32:0 33:0 34:0 35:0 36:0 37:0 38:0 39:0.069231 40:0.430769 41:0 42:0 43:0 44:0 45:0 46:0.026923 47:0.030769 48:0.030769 49:0.042308 50:0.065385 51:0.038462 52:0.026923 53:0.042308 54:0.046154 55:0.15 
1 0 1:0.023077 2:0.103846 3:0.05 4:0.103846 5:0.061538 6:0.015385 7:0.046154 8:0.026923 9:0.011538 10:0.034615 11:0.003846 12:0.003846 13:0.011538 14:0 15:0.003846 16:0 17:0 18:0 19:0.442308 20:0.053846 21:0.003846 22:0 23:0 24:0 25:0 26:0 27:0 28:0 29:0 30:0 31:0 32:0 33:0 34:0 35:0 36:0 37:0 38:0 39:0.069231 40:0.430769 41:0 42:0 43:0 44:0 45:0 46:0.026923 47:0.030769 48:0.030769 49:0.042308 50:0.065385 51:0.038462 52:0.026923 53:0.042308 54:0.046154 55:0.15 
1 0 1:0.023077 2:0.103846 3:0.05 4:0.103846 5:0.061538 6:0.015385 7:0.046154 8:0.026923 9:0.011538 10:0.034615 11:0.003846 12:0.003846 13:0.011538 14:0 15:0.003846 16:0 17:0 18:0 19:0.442308 20:0.053846 21:0.003846 22:0 23:0 24:0 25:0 26:0 27:0 28:0 29:0 30:0 31:0 32:0 33:0 34:0 35:0 36:0 37:0 38:0 39:0.069231 40:0.430769 41:0 42:0 43:0 44:0 45:0 46:0.026923 47:0.030769 48:0.030769 49:0.042308 50:0.065385 51:0.038462 52:0.026923 53:0.042308 54:0.046154 55:0.15 
1 0 1:0.023077 2:0.103846 3:0.05 4:0.103846 5:0.061538 6:0.015385 7:0.046154 8:0.026923 9:0.011538 10:0.034615 11:0.003846 12:0.003846 13:0.011538 14:0 15:0.003846 16:0 17:0 18:0 19:0.442308 20:0.053846 21:0.003846 22:0 23:0 24:0 25:0 26:0 27:0 28:0 29:0 30:0 31:0 32:0 33:0 34:0 35:0 36:0 37:0 38:0 39:0.069231 40:0.430769 41:0 42:0 43:0 44:0 45:0 46:0.026923 47:0.030769 48:0.030769 49:0.042308 50:0.065385 51:0.038462 52:0.026923 53:0.042308 54:0.046154 55:0.15 
1 0 1:0.023077 2:0.103846 3:0.05 4:0.103846 5:0.061538 6:0.015385 7:0.046154 8:0.026923 9:0.011538 10:0.034615 11:0.003846 12:0.003846 13:0.011538 14:0 15:0.003846 16:0 17:0 18:0 19:0.442308 20:0.053846 21:0.003846 22:0 23:0 24:0 25:0 26:0 27:0 28:0 29:0 30:0 31:0 32:0 33:0 34:0 35:0 36:0 37:0 38:0 39:0.069231 40:0.430769 41:0 42:0 43:0 44:0 45:0 46:0.026923 47:0.030769 48:0.030769 49:0.042308 50:0.065385 51:0.038462 52:0.026923 53:0.042308 54:0.046154 55:0.15 
1 0 1:0.023077 2:0.103846 3:0.05 4:0.103846 5:0.061538 6:0.015385 7:0.046154 8:0.026923 9:0.011538 10:0.034615 11:0.003846 12:0.003846 13:0.011538 14:0 15:0.003846 16:0 17:0 18:0 19:0.442308 20:0.053846 21:0.003846 22:0 23:0 24:0 25:0 26:0 27:0 28:0 29:0 30:0 31:0 32:0 33:0 34:0 35:0 36:0 37:0 38:0 39:0.069231 40:0.430769 41:0 42:0 43:0 44:0 45:0 46:0.026923 47:0.030769 48:0.030769 49:0.042308 50:0.065385 51:0.038462 52:0.026923 53:0.042308 54:0.046154 55:0.15 
1 0 1:0.023077 2:0.103846 3:0.05 4:0.103846 5:0.061538 6:0.015385 7:0.046154 8:0.026923 9:0.011538 10:0.034615 11:0.003846 12:0.003846 13:0.011538 14:0 15:0.003846 16:0 17:0 18:0 19:0.442308 20:0.053846 21:0.003846 22:0 23:0 24:0 25:0 26:0 27:0 28:0 29:0 30:0 31:0 32:0 33:0 34:0 35:0 36:0 37:0 38:0 39:0.069231 40:0.430769 41:0 42:0 43:0 44:0 45:0 46:0.026923 47:0.030769 48:0.030769 49:0.042308 50:0.065385 51:0.038462 52:0.026923 53:0.042308 54:0.046154 55:0.15 
1 0 1:0.023077 2:0.103846 3:0.05 4:0.103846 5:0.061538 6:0.015385 7:0.046154 8:0.026923 9:0.011538 10:0.034615 11:0.003846 12:0.003846 13:0.011538 14:0 15:0.003846 16:0 17:0 18:0 19:0.442308 20:0.053846 21:0.003846 22:0 23:0 24:0 25:0 26:0 27:0 28:0 29:0 30:0 31:0 32:0 33:0 34:0 35:0 36:0 37:0 38:0 39:0.069231 40:0.430769 41:0 42:0 43:0 44:0 45:0 46:0.026923 47:0.030769 48:0.030769 49:0.042308 50:0.065385 51:0.038462 52:0.026923 53:0.042308 54:0.046154 55:0.15 
1 0 1:0.023077 2:0.103846 3:0.05 4:0.103846 5:0.061538 6:0.015385 7:0.046154 8:0.026923 9:0.011538 10:0.034615 11:0.003846 12:0.003846 13:0.011538 14:0 15:0.003846 16:0 17:0 18:0 19:0.442308 20:0.053846 21:0.003846 22:0 23:0 24:0 25:0 26:0 27:0 28:0 29:0 30:0 31:0 32:0 33:0 34:0 35:0 36:0 37:0 38:0 39:0.069231 40:0.430769 41:0 42:0 43:0 44:0 45:0 46:0.026923 47:0.030769 48:0.030769 49:0.042308 50:0.065385 51:0.038462 52:0.026923 53:0.042308 54:0.046154 55:0.15 
1 0 1:0.023077 2:0.103846 3:0.05 4:0.103846 5:0.061538 6:0.015385 7:0.046154 8:0.026923 9:0.011538 10:0.034615 11:0.003846 12:0.003846 13:0.011538 14:0 15:0.003846 16:0 17:0 18:0 19:0.442308 20:0.053846 21:0.003846 22:0 23:0 24:0 25:0 26:0 27:0 28:0 29:0 30:0 31:0 32:0 33:0 34:0 35:0 36:0 37:0 38:0 39:0.069231 40:0.430769 41:0 42:0 43:0 44:0 45:0 46:0.026923 47:0.030769 48:0.030769 49:0.042308 50:0.065385 51:0.038462 52:0.026923 53:0.042308 54:0.046154 55:0.15 
1 0 1:0.059375 2:0.06875 3:0.05 4:0.034375 5:0.015625 6:0.00625 7:0.046875 8:0.028125 9:0.009375 10:0.075 11:0.059375 12:0.009375 13:0.021875 14:0 15:0.003125 16:0.009375 17:0.003125 18:0 19:0.440625 20:0.053125 21:0.00625 22:0 23:0 24:0 25:0 26:0 27:0 28:0 29:0 30:0 31:0 32:0 33:0 34:0 35:0 36:0 37:0 38:0 39:0.003125 40:0.375 41:0.121875 42:0 43:0 44:0 45:0 46:0.028125 47:0.04375 48:0.025 49:0.053125 50:0.059375 51:0.034375 52:0.04375 53:0.065625 54:0.034375 55:0.1125 
1 0 1:0.059375 2:0.06875 3:0.05 4:0.034375 5:0.015625 6:0.00625 7:0.046875 8:0.028125 9:0.009375 10:0.075 11:0.059375 12:0.009375 13:0.021875 14:0 15:0.003125 16:0.009375 17:0.003125 18:0 19:0.440625 20:0.053125 21:0.00625 22:0 23:0 24:0 25:0 26:0 27:0 28:0 29:0 30:0 31:0 32:0 33:0 34:0 35:0 36:0 37:0 38:0 39:0.003125 40:0.375 41:0.121875 42:0 43:0 44:0 45:0 46:0.028125 47:0.04375 48:0.025 49:0.053125 50:0.059375 51:0.034375 52:0.04375 53:0.065625 54:0.034375 55:0.1125 
1 0 1:0.059375 2:0.06875 3:0.05 4:0.034375 5:0.015625 6:0.00625 7:0.046875 8:0.028125 9:0.009375 10:0.075 11:0.059375 12:0.009375 13:0.021875 14:0 15:0.003125 16:0.009375 17:0.003125 18:0 19:0.440625 20:0.053125 21:0.00625 22:0 23:0 24:0 25:0 26:0 27:0 28:0 29:0 30:0 31:0 32:0 33:0 34:0 35:0 36:0 37:0 38:0 39:0.003125 40:0.375 41:0.121875 42:0 43:0 44:0 45:0 46:0.028125 47:0.04375 48:0.025 49:0.053125 50:0.059375 51:0.034375 52:0.04375 53:0.065625 54:0.034375 55:0.1125 
1 0 1:0.059375 2:0.06875 3:0.05 4:0.034375 5:0.015625 6:0.00625 7:0.046875 8:0.028125 9:0.009375 10:0.075 11:0.059375 12:0.009375 13:0.021875 14:0 15:0.003125 16:0.009375 17:0.003125 18:0 19:0.440625 20:0.053125 21:0.00625 22:0 23:0 24:0 25:0 26:0 27:0 28:0 29:0 30:0 31:0 32:0 33:0 34:0 35:0 36:0 37:0 38:0 39:0.003125 40:0.375 41:0.121875 42:0 43:0 44:0 45:0 46:0.028125 47:0.04375 48:0.025 49:0.053125 50:0.059375 51:0.034375 52:0.04375 53:0.065625 54:0.034375 55:0.1125 
1 0 1:0.059375 2:0.06875 3:0.05 4:0.034375 5:0.015625 6:0.00625 7:0.046875 8:0.028125 9:0.009375 10:0.075 11:0.059375 12:0.009375 13:0.021875 14:0 15:0.003125 16:0.009375 17:0.003125 18:0 19:0.440625 20:0.053125 21:0.00625 22:0 23:0 24:0 25:0 26:0 27:0 28:0 29:0 30:0 31:0 32:0 33:0 34:0 35:0 36:0 37:0 38:0 39:0.003125 40:0.375 41:0.121875 42:0 43:0 44:0 45:0 46:0.028125 47:0.04375 48:0.025 49:0.053125 50:0.059375 51:0.034375 52:0.04375 53:0.065625 54:0.034375 55:0.1125 
1 0 1:0.059375 2:0.06875 3:0.05 4:0.034375 5:0.015625 6:0.00625 7:0.046875 8:0.028125 9:0.009375 10:0.075 11:0.059375 12:0.009375 13:0.021875 14:0 15:0.003125 16:0.009375 17:0.003125 18:0 19:0.440625 20:0.053125 21:0.00625 22:0 23:0 24:0 25:0 26:0 27:0 28:0 29:0 30:0 31:0 32:0 33:0 34:0 35:0 36:0 37:0 38:0 39:0.003125 40:0.375 41:0.121875 42:0 43:0 44:0 45:0 46:0.028125 47:0.04375 48:0.025 49:0.053125 50:0.059375 51:0.034375 52:0.04375 53:0.065625 54:0.034375 55:0.1125 
1 0 1:0.059375 2:0.06875 3:0.05 4:0.034375 5:0.015625 6:0.00625 7:0.046875 8:0.028125 9:0.009375 10:0.075 11:0.059375 12:0.009375 13:0.021875 14:0 15:0.003125 16:0.009375 17:0.003125 18:0 19:0.440625 20:0.053125 21:0.00625 22:0 23:0 24:0 25:0 26:0 27:0 28:0 29:0 30:0 31:0 32:0 33:0 34:0 35:0 36:0 37:0 38:0 39:0.003125 40:0.375 41:0.121875 42:0 43:0 44:0 45:0 46:0.028125 47:0.04375 48:0.025 49:0.053125 50:0.059375 51:0.034375 52:0.04375 53:0.065625 54:0.034375 55:0.1125 
1 0 1:0.059375 2:0.06875 3:0.05 4:0.034375 5:0.015625 6:0.00625 7:0.046875 8:0.028125 9:0.009375 10:0.075 11:0.059375 12:0.009375 13:0.021875 14:0 15:0.003125 16:0.009375 17:0.003125 18:0 19:0.440625 20:0.053125 21:0.00625 22:0 23:0 24:0 25:0 26:0 27:0 28:0 29:0 30:0 31:0 32:0 33:0 34:0 35:0 36:0 37:0 38:0 39:0.003125 40:0.375 41:0.121875 42:0 43:0 44:0 45:0 46:0.028125 47:0.04375 48:0.025 49:0.053125 50:0.059375 51:0.034375 52:0.04375 53:0.065625 54:0.034375 55:0.1125 
1 0 1:0.059375 2:0.06875 3:0.05 4:0.034375 5:0.015625 6:0.00625 7:0.046875 8:0.028125 9:0.009375 10:0.075 11:0.059375 12:0.009375 13:0.021875 14:0 15:0.003125 16:0.009375 17:0.003125 18:0 19:0.440625 20:0.053125 21:0.00625 22:0 23:0 24:0 25:0 26:0 27:0 28:0 29:0 30:0 31:0 32:0 33:0 34:0 35:0 36:0 37:0 38:0 39:0.003125 40:0.375 41:0.121875 42:0 43:0 44:0 45:0 46:0.028125 47:0.04375 48:0.025 49:0.053125 50:0.059375 51:0.034375 52:0.04375 53:0.065625 54:0.034375 55:0.1125 
1 0 1:0.059375 2:0.06875 3:0.05 4:0.034375 5:0.015625 6:0.00625 7:0.046875 8:0.028125 9:0.009375 10:0.075 11:0.059375 12:0.009375 13:0.021875 14:0 15:0.003125 16:0.009375 17:0.003125 18:0 19:0.440625 20:0.053125 21:0.00625 22:0 23:0 24:0 25:0 26:0 27:0 28:0 29:0 30:0 31:0 32:0 33:0 34:0 35:0 36:0 37:0 38:0 39:0.003125 40:0.375 41:0.121875 42:0 43:0 44:0 45:0 46:0.028125 47:0.04375 48:0.025 49:0.053125 50:0.059375 51:0.034375 52:0.04375 53:0.065625 54:0.034375 55:0.1125 
1 0 1:0.059375 2:0.06875 3:0.05 4:0.034375 5:0.015625 6:0.00625 7:0.046875 8:0.028125 9:0.009375 10:0.075 11:0.059375 12:0.009375 13:0.021875 14:0 15:0.003125 16:0.009375 17:0.003125 18:0 19:0.440625 20:0.053125 21:0.00625 22:0 23:0 24:0 25:0 26:0 27:0 28:0 29:0 30:0 31:0 32:0 33:0 34:0 35:0 36:0 37:0 38:0 39:0.003125 40:0.375 41:0.121875 42:0 43:0 44:0 45:0 46:0.028125 47:0.04375 48:0.025 49:0.053125 50:0.059375 51:0.034375 52:0.04375 53:0.065625 54:0.034375 55:0.1125 
1 0 1:0.059375 2:0.06875 3:0.05 4:0.034375 5:0.015625 6:0.00625 7:0.046875 8:0.028125 9:0.009375 10:0.075 11:0.059375 12:0.009375 13:0.021875 14:0 15:0.003125 16:0.009375 17:0.003125 18:0 19:0.440625 20:0.053125 21:0.00625 22:0 23:0 24:0 25:0 26:0 27:0 28:0 29:0 30:0 31:0 32:0 33:0 34:0 35:0 36:0 37:0 38:0 39:0.003125 40:0.375 41:0.121875 42:0 43:0 44:0 45:0 46:0.028125 47:0.04375 48:0.025 49:0.053125 50:0.059375 51:0.034375 52:0.04375 53:0.065625 54:0.034375 55:0.1125 
1 0 1:0.059375 2:0.06875 3:0.05 4:0.034375 5:0.015625 6:0.00625 7:0.046875 8:0.028125 9:0.009375 10:0.075 11:0.059375 12:0.009375 13:0.021875 14:0 15:0.003125 16:0.009375 17:0.003125 18:0 19:0.440625 20:0.053125 21:0.00625 22:0 23:0 24:0 25:0 26:0 27:0 28:0 29:0 30:0 31:0 32:0 33:0 34:0 35:0 36:0 37:0 38:0 39:0.003125 40:0.375 41:0.121875 42:0 43:0 44:0 45:0 46:0.028125 47:0.04375 48:0.025 49:0.053125 50:0.059375 51:0.034375 52:0.04375 53:0.065625 54:0.034375 55:0.1125 
1 0 1:0.059375 2:0.06875 3:0.05 4:0.034375 5:0.015625 6:0.00625 7:0.046875 8:0.028125 9:0.009375 10:0.075 11:0.059375 12:0.009375 13:0.021875 14:0 15:0.003125 16:0.009375 17:0.003125 18:0 19:0.440625 20:0.053125 21:0.00625 22:0 23:0 24:0 25:0 26:0 27:0 28:0 29:0 30:0 31:0 32:0 33:0 34:0 35:0 36:0 37:0 38:0 39:0.003125 40:0.375 41:0.121875 42:0 43:0 44:0 45:0 46:0.028125 47:0.04375 48:0.025 49:0.053125 50:0.059375 51:0.034375 52:0.04375 53:0.065625 54:0.034375 55:0.1125 
1 0 1:0.059375 2:0.06875 3:0.05 4:0.034375 5:0.015625 6:0.00625 7:0.046875 8:0.028125 9:0.009375 10:0.075 11:0.059375 12:0.009375 13:0.021875 14:0 15:0.003125 16:0.009375 17:0.003125 18:0 19:0.440625 20:0.053125 21:0.00625 22:0 23:0 24:0 25:0 26:0 27:0 28:0 29:0 30:0 31:0 32:0 33:0 34:0 35:0 36:0 37:0 38:0 39:0.003125 40:0.375 41:0.121875 42:0 43:0 44:0 45:0 46:0.028125 47:0.04375 48:0.025 49:0.053125 50:0.059375 51:0.034375 52:0.04375 53:0.065625 54:0.034375 55:0.1125 
1 0 1:0.059375 2:0.06875 3:0.05 4:0.034375 5:0.015625 6:0.00625 7:0.046875 8:0.028125 9:0.009375 10:0.075 11:0.059375 12:0.009375 13:0.021875 14:0 15:0.003125 16:0.009375 17:0.003125 18:0 19:0.440625 20:0.053125 21:0.00625 22:0 23:0 24:0 25:0 26:0 27:0 28:0 29:0 30:0 31:0 32:0 33:0 34:0 35:0 36:0 37:0 38:0 39:0.003125 40:0.375 41:0.121875 42:0 43:0 44:0 45:0 46:0.028125 47:0.04375 48:0.025 49:0.053125 50:0.059375 51:0.034375 52:0.04375 53:0.065625 54:0.034375 55:0.1125 
1 0 1:0.059375 2:0.06875 3:0.05 4:0.034375 5:0.015625 6:0.00625 7:0.046875 8:0.028125 9:0.009375 10:0.075 11:0.059375 12:0.009375 13:0.021875 14:0 15:0.003125 16:0.009375 17:0.003125 18:0 19:0.440625 20:0.053125 21:0.00625 22:0 23:0 24:0 25:0 26:0 27:0 28:0 29:0 30:0 31:0 32:0 33:0 34:0 35:0 36:0 37:0 38:0 39:0.003125 40:0.375 41:0.121875 42:0 43:0 44:0 45:0 46:0.028125 47:0.04375 48:0.025 49:0.053125 50:0.059375 51:0.034375 52:0.04375 53:0.065625 54:0.034375 55:0.1125 
1 0 1:0.059375 2:0.06875 3:0.05 4:0.034375 5:0.015625 6:0.00625 7:0.046875 8:0.028125 9:0.009375 10:0.075 11:0.059375 12:0.009375 13:0.021875 14:0 15:0.003125 16:0.009375 17:0.003125 18:0 19:0.440625 20:0.053125 21:0.00625 22:0 23:0 24:0 25:0 26:0 27:0 28:0 29:0 30:0 31:0 32:0 33:0 34:0 35:0 36:0 37:0 38:0 39:0.003125 40:0.375 41:0.121875 42:0 43:0 44:0 45:0 46:0.028125 47:0.04375 48:0.025 49:0.053125 50:0.059375 51:0.034375 52:0.04375 53:0.065625 54:0.034375 55:0.1125 
1 0 1:0.059375 2:0.06875 3:0.05 4:0.034375 5:0.015625 6:0.00625 7:0.046875 8:0.028125 9:0.009375 10:0.075 11:0.059375 12:0.009375 13:0.021875 14:0 15:0.003125 16:0.009375 17:0.003125 18:0 19:0.440625 20:0.053125 21:0.00625 22:0 23:0 24:0 25:0 26:0 27:0 28:0 29:0 30:0 31:0 32:0 33:0 34:0 35:0 36:0 37:0 38:0 39:0.003125 40:0.375 41:0.121875 42:0 43:0 44:0 45:0 46:0.028125 47:0.04375 48:0.025 49:0.053125 50:0.059375 51:0.034375 52:0.04375 53:0.065625 54:0.034375 55:0.1125 
1 0 1:0.059375 2:0.06875 3:0.05 4:0.034375 5:0.015625 6:0.00625 7:0.046875 8:0.028125 9:0.009375 10:0.075 11:0.059375 12:0.009375 13:0.021875 14:0 15:0.003125 16:0.009375 17:0.003125 18:0 19:0.440625 20:0.053125 21:0.00625 22:0 23:0 24:0 25:0 26:0 27:0 28:0 29:0 30:0 31:0 32:0 33:0 34:0 35:0 36:0 37:0 38:0 39:0.003125 40:0.375 41:0.121875 42:0 43:0 44:0 45:0 46:0.028125 47:0.04375 48:0.025 49:0.053125 50:0.059375 51:0.034375 52:0.04375 53:0.065625 54:0.034375 55:0.1125 
1 0 1:0.003759 2:0.018797 3:0.112782 4:0.172932 5:0.097744 6:0.030075 7:0.033835 8:0.007519 9:0.003759 10:0.018797 11:0 12:0 13:0 14:0 15:0 16:0 17:0 18:0 19:0.338346 20:0.157895 21:0.003759 22:0 23:0 24:0 25:0 26:0 27:0 28:0 29:0 30:0 31:0 32:0 33:0 34:0 35:0 36:0 37:0 38:0 39:0.466165 40:0.033835 41:0 42:0 43:0 44:0 45:0 46:0.033835 47:0.037594 48:0.015038 49:0.037594 50:0.022556 51:0.048872 52:0.056391 53:0.06391 54:0.045113 55:0.139098 
1 0 1:0.003759 2:0.018797 3:0.112782 4:0.172932 5:0.097744 6:0.030075 7:0.033835 8:0.007519 9:0.003759 10:0.018797 11:0 12:0 13:0 14:0 15:0 16:0 17:0 18:0 19:0.338346 20:0.157895 21:0.003759 22:0 23:0 24:0 25:0 26:0 27:0 28:0 29:0 30:0 31:0 32:0 33:0 34:0 35:0 36:0 37:0 38:0 39:0.466165 40:0.033835 41:0 42:0 43:0 44:0 45:0 46:0.033835 47:0.037594 48:0.015038 49:0.037594 50:0.022556 51:0.048872 52:0.056391 53:0.06391 54:0.045113 55:0.139098 
1 0 1:0.003759 2:0.018797 3:0.112782 4:0.172932 5:0.097744 6:0.030075 7:0.033835 8:0.007519 9:0.003759 10:0.018797 11:0 12:0 13:0 14:0 15:0 16:0 17:0 18:0 19:0.338346 20:0.157895 21:0.003759 22:0 23:0 24:0 25:0 26:0 27:0 28:0 29:0 30:0 31:0 32:0 33:0 34:0 35:0 36:0 37:0 38:0 39:0.466165 40:0.033835 41:0 42:0 43:0 44:0 45:0 46:0.033835 47:0.037594 48:0.015038 49:0.037594 50:0.022556 51:0.048872 52:0.056391 53:0.06391 54:0.045113 55:0.139098 
1 0 1:0.003759 2:0.018797 3:0.112782 4:0.172932 5:0.097744 6:0.030075 7:0.033835 8:0.007519 9:0.003759 10:0.018797 11:0 12:0 13:0 14:0 15:0 16:0 17:0 18:0 19:0.338346 20:0.157895 21:0.003759 22:0 23:0 24:0 25:0 26:0 27:0 28:0 29:0 30:0 31:0 32:0 33:0 34:0 35:0 36:0 37:0 38:0 39:0.466165 40:0.033835 41:0 42:0 43:0 44:0 45:0 46:0.033835 47:0.037594 48:0.015038 49:0.037594 50:0.022556 51:0.048872 52:0.056391 53:0.06391 54:0.045113 55:0.139098 
1 0 1:0.003759 2:0.018797 3:0.112782 4:0.172932 5:0.097744 6:0.030075 7:0.033835 8:0.007519 9:0.003759 10:0.018797 11:0 12:0 13:0 14:0 15:0 16:0 17:0 18:0 19:0.338346 20:0.157895 21:0.003759 22:0 23:0 24:0 25:0 26:0 27:0 28:0 29:0 30:0 31:0 32:0 33:0 34:0 35:0 36:0 37:0 38:0 39:0.466165 40:0.033835 41:0 42:0 43:0 44:0 45:0 46:0.033835 47:0.037594 48:0.015038 49:0.037594 50:0.022556 51:0.048872 52:0.056391 53:0.06391 54:0.045113 55:0.139098 
1 0 1:0.003759 2:0.018797 3:0.112782 4:0.172932 5:0.097744 6:0.030075 7:0.033835 8:0.007519 9:0.003759 10:0.018797 11:0 12:0 13:0 14:0 15:0 16:0 17:0 18:0 19:0.338346 20:0.157895 21:0.003759 22:0 23:0 24:0 25:0 26:0 27:0 28:0 29:0 30:0 31:0 32:0 33:0 34:0 35:0 36:0 37:0 38:0 39:0.466165 40:0.033835 41:0 42:0 43:0 44:0 45:0 46:0.033835 47:0.037594 48:0.015038 49:0.037594 50:0.022556 51:0.048872 52:0.056391 53:0.06391 54:0.045113 55:0.139098 
1 0 1:0.003759 2:0.018797 3:0.112782 4:0.172932 5:0.097744 6:0.030075 7:0.033835 8:0.007519 9:0.003759 10:0.018797 11:0 12:0 13:0 14:0 15:0 16:0 17:0 18:0 19:0.338346 20:0.157895 21:0.003759 22:0 23:0 24:0 25:0 26:0 27:0 28:0 29:0 30:0 31:0 32:0 33:0 34:0 35:0 36:0 37:0 38:0 39:0.466165 40:0.033835 41:0 42:0 43:0 44:0 45:0 46:0.033835 47:0.037594 48:0.015038 49:0.037594 50:0.022556 51:0.048872 52:0.056391 53:0.06391 54:0.045113 55:0.139098 
1 0 1:0.003759 2:0.018797 3:0.112782 4:0.172932 5:0.097744 6:0.030075 7:0.033835 8:0.007519 9:0.003759 10:0.018797 11:0 12:0 13:0 14:0 15:0 16:0 17:0 18:0 19:0.338346 20:0.157895 21:0.003759 22:0 23:0 24:0 25:0 26:0 27:0 28:0 29:0 30:0 31:0 32:0 33:0 34:0 35:0 36:0 37:0 38:0 39:0.466165 40:0.033835 41:0 42:0 43:0 44:0 45:0 46:0.033835 47:0.037594 48:0.015038 49:0.037594 50:0.022556 51:0.048872 52:0.056391 53:0.06391 54:0.045113 55:0.139098 
1 0 1:0.003759 2:0.018797 3:0.112782 4:0.172932 5:0.097744 6:0.030075 7:0.033835 8:0.007519 9:0.003759 10:0.018797 11:0 12:0 13:0 14:0 15:0 16:0 17:0 18:0 19:0.338346 20:0.157895 21:0.003759 22:0 23:0 24:0 25:0 26:0 27:0 28:0 29:0 30:0 31:0 32:0 33:0 34:0 35:0 36:0 37:0 38:0 39:0.466165 40:0.033835 41:0 42:0 43:0 44:0 45:0 46:0.033835 47:0.037594 48:0.015038 49:0.037594 50:0.022556 51:0.048872 52:0.056391 53:0.06391 54:0.045113 55:0.139098 
1 0 1:0.003759 2:0.018797 3:0.112782 4:0.172932 5:0.097744 6:0.030075 7:0.033835 8:0.007519 9:0.003759 10:0.018797 11:0 12:0 13:0 14:0 15:0 16:0 17:0 18:0 19:0.338346 20:0.157895 21:0.003759 22:0 23:0 24:0 25:0 26:0 27:0 28:0 29:0 30:0 31:0 32:0 33:0 34:0 35:0 36:0 37:0 38:0 39:0.466165 40:0.033835 41:0 42:0 43:0 44:0 45:0 46:0.033835 47:0.037594 48:0.015038 49:0.037594 50:0.022556 51:0.048872 52:0.056391 53:0.06391 54:0.045113 55:0.139098 
1 0 1:0.003759 2:0.018797 3:0.112782 4:0.172932 5:0.097744 6:0.030075 7:0.033835 8:0.007519 9:0.003759 10:0.018797 11:0 12:0 13:0 14:0 15:0 16:0 17:0 18:0 19:0.338346 20:0.157895 21:0.003759 22:0 23:0 24:0 25:0 26:0 27:0 28:0 29:0 30:0 31:0 32:0 33:0 34:0 35:0 36:0 37:0 38:0 39:0.466165 40:0.033835 41:0 42:0 43:0 44:0 45:0 46:0.033835 47:0.037594 48:0.015038 49:0.037594 50:0.022556 51:0.048872 52:0.056391 53:0.06391 54:0.045113 55:0.139098 
1 0 1:0.003759 2:0.018797 3:0.112782 4:0.172932 5:0.097744 6:0.030075 7:0.033835 8:0.007519 9:0.003759 10:0.018797 11:0 12:0 13:0 14:0 15:0 16:0 17:0 18:0 19:0.338346 20:0.157895 21:0.003759 22:0 23:0 24:0 25:0 26:0 27:0 28:0 29:0 30:0 31:0 32:0 33:0 34:0 35:0 36:0 37:0 38:0 39:0.466165 40:0.033835 41:0 42:0 43:0 44:0 45:0 46:0.033835 47:0.037594 48:0.015038 49:0.037594 50:0.022556 51:0.048872 52:0.056391 53:0.06391 54:0.045113 55:0.139098 
1 0 1:0.003759 2:0.018797 3:0.112782 4:0.172932 5:0.097744 6:0.030075 7:0.033835 8:0.007519 9:0.003759 10:0.018797 11:0 12:0 13:0 14:0 15:0 16:0 17:0 18:0 19:0.338346 20:0.157895 21:0.003759 22:0 23:0 24:0 25:0 26:0 27:0 28:0 29:0 30:0 31:0 32:0 33:0 34:0 35:0 36:0 37:0 38:0 39:0.466165 40:0.033835 41:0 42:0 43:0 44:0 45:0 46:0.033835 47:0.037594 48:0.015038 49:0.037594 50:0.022556 51:0.048872 52:0.056391 53:0.06391 54:0.045113 55:0.139098 
1 0 1:0.003759 2:0.018797 3:0.112782 4:0.172932 5:0.097744 6:0.030075 7:0.033835 8:0.007519 9:0.003759 10:0.018797 11:0 12:0 13:0 14:0 15:0 16:0 17:0 18:0 19:0.338346 20:0.157895 21:0.003759 22:0 23:0 24:0 25:0 26:0 27:0 28:0 29:0 30:0 31:0 32:0 33:0 34:0 35:0 36:0 37:0 38:0 39:0.466165 40:0.033835 41:0 42:0 43:0 44:0 45:0 46:0.033835 47:0.037594 48:0.015038 49:0.037594 50:0.022556 51:0.048872 52:0.056391 53:0.06391 54:0.045113 55:0.139098 
1 0 1:0.003759 2:0.018797 3:0.112782 4:0.172932 5:0.097744 6:0.030075 7:0.033835 8:0.007519 9:0.003759 10:0.018797 11:0 12:0 13:0 14:0 15:0 16:0 17:0 18:0 19:0.338346 20:0.157895 21:0.003759 22:0 23:0 24:0 25:0 26:0 27:0 28:0 29:0 30:0 31:0 32:0 33:0 34:0 35:0 36:0 37:0 38:0 39:0.466165 40:0.033835 41:0 42:0 43:0 44:0 45:0 46:0.033835 47:0.037594 48:0.015038 49:0.037594 50:0.022556 51:0.048872 52:0.056391 53:0.06391 54:0.045113 55:0.139098 
1 0 1:0.003759 2:0.018797 3:0.112782 4:0.172932 5:0.097744 6:0.030075 7:0.033835 8:0.007519 9:0.003759 10:0.018797 11:0 12:0 13:0 14:0 15:0 16:0 17:0 18:0 19:0.338346 20:0.157895 21:0.003759 22:0 23:0 24:0 25:0 26:0 27:0 28:0 29:0 30:0 31:0 32:0 33:0 34:0 35:0 36:0 37:0 38:0 39:0.466165 40:0.033835 41:0 42:0 43:0 44:0 45:0 46:0.033835 47:0.037594 48:0.015038 49:0.037594 50:0.022556 51:0.048872 52:0.056391 53:0.06391 54:0.045113 55:0.139098 
1 0 1:0.003759 2:0.018797 3:0.112782 4:0.172932 5:0.097744 6:0.030075 7:0.033835 8:0.007519 9:0.003759 10:0.018797 11:0 12:0 13:0 14:0 15:0 16:0 17:0 18:0 19:0.338346 20:0.157895 21:0.003759 22:0 23:0 24:0 25:0 26:0 27:0 28:0 29:0 30:0 31:0 32:0 33:0 34:0 35:0 36:0 37:0 38:0 39:0.466165 40:0.033835 41:0 42:0 43:0 44:0 45:0 46:0.033835 47:0.037594 48:0.015038 49:0.037594 50:0.022556 51:0.048872 52:0.056391 53:0.06391 54:0.045113 55:0.139098 
1 0 1:0.003759 2:0.018797 3:0.112782 4:0.172932 5:0.097744 6:0.030075 7:0.033835 8:0.007519 9:0.003759 10:0.018797 11:0 12:0 13:0 14:0 15:0 16:0 17:0 18:0 19:0.338346 20:0.157895 21:0.003759 22:0 23:0 24:0 25:0 26:0 27:0 28:0 29:0 30:0 31:0 32:0 33:0 34:0 35:0 36:0 37:0 38:0 39:0.466165 40:0.033835 41:0 42:0 43:0 44:0 45:0 46:0.033835 47:0.037594 48:0.015038 49:0.037594 50:0.022556 51:0.048872 52:0.056391 53:0.06391 54:0.045113 55:0.139098 
1 0 1:0.003759 2:0.018797 3:0.112782 4:0.172932 5:0.097744 6:0.030075 7:0.033835 8:0.007519 9:0.003759 10:0.018797 11:0 12:0 13:0 14:0 15:0 16:0 17:0 18:0 19:0.338346 20:0.157895 21:0.003759 22:0 23:0 24:0 25:0 26:0 27:0 28:0 29:0 30:0 31:0 32:0 33:0 34:0 35:0 36:0 37:0 38:0 39:0.466165 40:0.033835 41:0 42:0 43:0 44:0 45:0 46:0.033835 47:0.037594 48:0.015038 49:0.037594 50:0.022556 51:0.048872 52:0.056391 53:0.06391 54:0.045113 55:0.139098 
1 0 1:0.003759 2:0.018797 3:0.112782 4:0.172932 5:0.097744 6:0.030075 7:0.033835 8:0.007519 9:0.003759 10:0.018797 11:0 12:0 13:0 14:0 15:0 16:0 17:0 18:0 19:0.338346 20:0.157895 21:0.003759 22:0 23:0 24:0 25:0 26:0 27:0 28:0 29:0 30:0 31:0 32:0 33:0 34:0 35:0 36:0 37:0 38:0 39:0.466165 40:0.033835 41:0 42:0 43:0 44:0 45:0 46:0.033835 47:0.037594 48:0.015038 49:0.037594 50:0.022556 51:0.048872 52:0.056391 53:0.06391 54:0.045113 55:0.139098 
1 0 1:0.083333 2:0.229167 3:0.076389 4:0.013889 5:0.006944 6:0 7:0.006944 8:0 9:0 10:0 11:0.003472 12:0.003472 13:0.003472 14:0.003472 15:0 16:0.03125 17:0.03125 18:0.006944 19:0.416667 20:0.069444 21:0.010417 22:0.003472 23:0 24:0 25:0 26:0 27:0 28:0 29:0 30:0 31:0 32:0 33:0 34:0 35:0 36:0 37:0 38:0 39:0 40:0.201389 41:0.298611 42:0 43:0 44:0 45:0 46:0.013889 47:0.020833 48:0.041667 49:0.069444 50:0.065972 51:0.048611 52:0.048611 53:0.059028 54:0.024306 55:0.107639 
1 0 1:0.083333 2:0.229167 3:0.076389 4:0.013889 5:0.006944 6:0 7:0.006944 8:0 9:0 10:0 11:0.003472 12:0.003472 13:0.003472 14:0.003472 15:0 16:0.03125 17:0.03125 18:0.006944 19:0.416667 20:0.069444 21:0.010417 22:0.003472 23:0 24:0 25:0 26:0 27:0 28:0 29:0 30:0 31:0 32:0 33:0 34:0 35:0 36:0 37:0 38:0 39:0 40:0.201389 41:0.298611 42:0 43:0 44:0 45:0 46:0.013889 47:0.020833 48:0.041667 49:0.069444 50:0.065972 51:0.048611 52:0.048611 53:0.059028 54:0.024306 55:0.107639 
1 0 1:0.083333 2:0.229167 3:0.076389 4:0.013889 5:0.006944 6:0 7:0.006944 8:0 9:0 10:0 11:0.003472 12:0.003472 13:0.003472 14:0.003472 15:0 16:0.03125 17:0.03125 18:0.006944 19:0.416667 20:0.069444 21:0.010417 22:0.003472 23:0 24:0 25:0 26:0 27:0 28:0 29:0 30:0 31:0 32:0 33:0 34:0 35:0 36:0 37:0 38:0 39:0 40:0.201389 41:0.298611 42:0 43:0 44:0 45:0 46:0.013889 47:0.020833 48:0.041667 49:0.069444 50:0.065972 51:0.048611 52:0.048611 53:0.059028 54:0.024306 55:0.107639 
1 0 1:0.083333 2:0.229167 3:0.076389 4:0.013889 5:0.006944 6:0 7:0.006944 8:0 9:0 10:0 11:0.003472 12:0.003472 13:0.003472 14:0.003472 15:0 16:0.03125 17:0.03125 18:0.006944 19:0.416667 20:0.069444 21:0.010417 22:0.003472 23:0 24:0 25:0 26:0 27:0 28:0 29:0 30:0 31:0 32:0 33:0 34:0 35:0 36:0 37:0 38:0 39:0 40:0.201389 41:0.298611 42:0 43:0 44:0 45:0 46:0.013889 47:0.020833 48:0.041667 49:0.069444 50:0.065972 51:0.048611 52:0.048611 53:0.059028 54:0.024306 55:0.107639 
1 0 1:0.083333 2:0.229167 3:0.076389 4:0.013889 5:0.006944 6:0 7:0.006944 8:0 9:0 10:0 11:0.003472 12:0.003472 13:0.003472 14:0.003472 15:0 16:0.03125 17:0.03125 18:0.006944 19:0.416667 20:0.069444 21:0.010417 22:0.003472 23:0 24:0 25:0 26:0 27:0 28:0 29:0 30:0 31:0 32:0 33:0 34:0 35:0 36:0 37:0 38:0 39:0 40:0.201389 41:0.298611 42:0 43:0 44:0 45:0 46:0.013889 47:0.020833 48:0.041667 49:0.069444 50:0.065972 51:0.048611 52:0.048611 53:0.059028 54:0.024306 55:0.107639 
1 0 1:0.083333 2:0.229167 3:0.076389 4:0.013889 5:0.006944 6:0 7:0.006944 8:0 9:0 10:0 11:0.003472 12:0.003472 13:0.003472 14:0.003472 15:0 16:0.03125 17:0.03125 18:0.006944 19:0.416667 20:0.069444 21:0.010417 22:0.003472 23:0 24:0 25:0 26:0 27:0 28:0 29:0 30:0 31:0 32:0 33:0 34:0 35:0 36:0 37:0 38:0 39:0 40:0.201389 41:0.298611 42:0 43:0 44:0 45:0 46:0.013889 47:0.020833 48:0.041667 49:0.069444 50:0.065972 51:0.048611 52:0.048611 53:0.059028 54:0.024306 55:0.107639 
